#define LEARNING_RATE 0.5f
#define NUM_EPOCHS 1
#define Tin_l0 928
#define Tout_l0 2

#define L0_IN_CH     (Tin_l0)
#define L0_OUT_CH    (Tout_l0)
#define L0_WEIGHTS   (L0_IN_CH*L0_OUT_CH)
PI_L2 float INPUT_VECTOR[L0_IN_CH] = {0.0f, 0.0f, 0.0f, 0.0f, 0.003921568859368563f, 0.0f, 0.0f, 0.027450982481241226f, 0.0f, 0.0f, 0.0f, 0.0f, 0.0f, 0.0f, 0.0f, 0.0f, 0.0f, 0.0f, 0.0f, 0.0f, 0.0f, 0.05098039656877518f, 0.0f, 0.0f, 0.0f, 0.0f, 0.0f, 0.01568627543747425f, 0.0f, 0.0f, 0.27450981736183167f, 0.6980392336845398f, 0.6980392336845398f, 0.2549019753932953f, 0.09803922474384308f, 0.04313725605607033f, 0.2352941334247589f, 0.16078431904315948f, 0.16470588743686676f, 0.062745101749897f, 0.03921568766236305f, 0.0313725508749485f, 0.011764707043766975f, 0.0f, 0.0f, 0.01568627543747425f, 0.007843137718737125f, 0.0f, 0.0f, 0.05490196496248245f, 0.21176472306251526f, 0.34117648005485535f, 0.09803922474384308f, 0.05882353335618973f, 0.007843137718737125f, 0.0f, 0.06666667014360428f, 0.08235294371843338f, 0.03529411926865578f, 0.20784315466880798f, 0.5215686559677124f, 0.44705885648727417f, 0.13725490868091583f, 0.0470588281750679f, 0.1098039299249649f, 0.3921568989753723f, 0.27843138575553894f, 0.09803922474384308f, 0.10196079313755035f, 0.05490196496248245f, 0.07058823853731155f, 0.05098039656877518f, 0.01568627543747425f, 0.03529411926865578f, 0.011764707043766975f, 0.019607843831181526f, 0.007843137718737125f, 0.0313725508749485f, 0.13333334028720856f, 0.3450980484485626f, 0.4117647409439087f, 0.2039215862751007f, 0.12156863510608673f, 0.0470588281750679f, 0.0313725508749485f, 0.10588236153125763f, 0.03921568766236305f, 0.0f, 0.0f, 0.0f, 0.0f, 0.0f, 0.0f, 0.0f, 0.0f, 0.0f, 0.0f, 0.0f, 0.0f, 0.0f, 0.0f, 0.0f, 0.0f, 0.0f, 0.0f, 0.0f, 0.0f, 0.0f, 0.0f, 0.0f, 0.0f, 0.0f, 0.0f, 0.0f, 0.0f, 0.0f, 0.0f, 0.0f, 0.0f, 0.0f, 0.0f, 0.0f, 0.0f, 0.0f, 0.0f, 0.0f, 0.0f, 0.0f, 0.0f, 0.0f, 0.0f, 0.0f, 0.0f, 0.0f, 0.0f, 0.0f, 0.0f, 0.0f, 0.0f, 0.0f, 0.0f, 0.0f, 0.0f, 0.0f, 0.0f, 0.0f, 0.0f, 0.0f, 0.0f, 0.0f, 0.0f, 0.0f, 0.0f, 0.0f, 0.0f, 0.0f, 0.0f, 0.0f, 0.0f, 0.0f, 0.0f, 0.0f, 0.0f, 0.0f, 0.0f, 0.0f, 0.0f, 0.0f, 0.0f, 0.0f, 0.0f, 0.0f, 0.0f, 0.0f, 0.250980406999588f, 0.01568627543747425f, 0.12941177189350128f, 0.4745098352432251f, 0.6823529601097107f, 0.4941176772117615f, 0.32156863808631897f, 0.40000003576278687f, 0.5647059082984924f, 0.45098042488098145f, 0.4549019932746887f, 0.44705885648727417f, 0.44705885648727417f, 0.5490196347236633f, 0.5568627715110779f, 0.45098042488098145f, 0.4078431725502014f, 0.41568630933761597f, 0.40392160415649414f, 0.3960784673690796f, 0.3137255012989044f, 0.32549020648002625f, 0.5058823823928833f, 0.615686297416687f, 0.5215686559677124f, 0.4549019932746887f, 0.30980393290519714f, 0.41960787773132324f, 0.5529412031173706f, 0.003921568859368563f, 0.26274511218070984f, 0.6823529601097107f, 0.7960785031318665f, 0.5254902243614197f, 0.3607843220233917f, 0.14901961386203766f, 0.4117647409439087f, 0.4941176772117615f, 0.3176470696926117f, 0.1411764770746231f, 0.14509804546833038f, 0.18039216101169586f, 0.23137256503105164f, 0.1882353127002716f, 0.09803922474384308f, 0.12156863510608673f, 0.11372549831867218f, 0.12941177189350128f, 0.19607844948768616f, 0.23137256503105164f, 0.2823529541492462f, 0.5058823823928833f, 0.37254902720451355f, 0.19215688109397888f, 0.13333334028720856f, 0.05490196496248245f, 0.2392157018184662f, 0.3137255012989044f, 0.0f, 0.01568627543747425f, 0.0f, 0.0f, 0.0f, 0.0f, 0.003921568859368563f, 0.0f, 0.0f, 0.0f, 0.0f, 0.0f, 0.0f, 0.0f, 0.0f, 0.003921568859368563f, 0.0f, 0.0f, 0.0f, 0.0f, 0.0f, 0.007843137718737125f, 0.0f, 0.0f, 0.0f, 0.0f, 0.0f, 0.0f, 0.0f, 0.0f, 0.0f, 0.003921568859368563f, 0.06666667014360428f, 0.007843137718737125f, 0.0f, 0.0f, 0.011764707043766975f, 0.16862745583057404f, 0.0f, 0.0f, 0.0f, 0.0f, 0.0f, 0.0f, 0.0f, 0.0f, 0.0f, 0.0f, 0.0f, 0.0f, 0.003921568859368563f, 0.062745101749897f, 0.01568627543747425f, 0.0f, 0.0f, 0.0f, 0.0f, 0.0f, 0.1764705926179886f, 0.2705882489681244f, 0.2352941334247589f, 0.0f, 0.0f, 0.003921568859368563f, 0.2039215862751007f, 0.3019607961177826f, 0.02352941408753395f, 0.05490196496248245f, 0.1882353127002716f, 0.18039216101169586f, 0.1764705926179886f, 0.08627451211214066f, 0.0941176563501358f, 0.062745101749897f, 0.03529411926865578f, 0.125490203499794f, 0.03529411926865578f, 0.03529411926865578f, 0.12156863510608673f, 0.3137255012989044f, 0.07058823853731155f, 0.007843137718737125f, 0.14901961386203766f, 0.11764706671237946f, 0.12941177189350128f, 0.15294118225574493f, 0.0313725508749485f, 0.14509804546833038f, 0.27843138575553894f, 0.1725490242242813f, 0.0313725508749485f, 0.29411765933036804f, 0.32156863808631897f, 0.16470588743686676f, 0.007843137718737125f, 0.0f, 0.011764707043766975f, 0.09019608050584793f, 0.0941176563501358f, 0.16862745583057404f, 0.13333334028720856f, 0.16470588743686676f, 0.10588236153125763f, 0.019607843831181526f, 0.0784313753247261f, 0.1764705926179886f, 0.16470588743686676f, 0.0941176563501358f, 0.03529411926865578f, 0.0f, 0.011764707043766975f, 0.02352941408753395f, 0.07058823853731155f, 0.1098039299249649f, 0.04313725605607033f, 0.13333334028720856f, 0.19607844948768616f, 0.5098039507865906f, 0.35686275362968445f, 0.007843137718737125f, 0.0f, 0.003921568859368563f, 0.22745099663734436f, 0.07450980693101883f, 0.0f, 0.09019608050584793f, 0.15294118225574493f, 0.10196079313755035f, 0.05882353335618973f, 0.003921568859368563f, 0.0f, 0.007843137718737125f, 0.011764707043766975f, 0.09803922474384308f, 0.07058823853731155f, 0.019607843831181526f, 0.2352941334247589f, 0.24705883860588074f, 0.03921568766236305f, 0.0f, 0.05882353335618973f, 0.07450980693101883f, 0.16862745583057404f, 0.03529411926865578f, 0.0f, 0.0f, 0.0f, 0.0f, 0.0f, 0.0f, 0.0f, 0.0f, 0.0f, 0.01568627543747425f, 0.0f, 0.0f, 0.0f, 0.0f, 0.0f, 0.0f, 0.0f, 0.0f, 0.0f, 0.0f, 0.0f, 0.0f, 0.0f, 0.0f, 0.0f, 0.0f, 0.0f, 0.0f, 0.0f, 0.0f, 0.05490196496248245f, 0.0f, 0.0f, 0.18431372940540314f, 0.2666666805744171f, 0.05882353335618973f, 0.01568627543747425f, 0.01568627543747425f, 0.019607843831181526f, 0.0f, 0.07450980693101883f, 0.05098039656877518f, 0.11372549831867218f, 0.08627451211214066f, 0.05490196496248245f, 0.0941176563501358f, 0.027450982481241226f, 0.03529411926865578f, 0.05490196496248245f, 0.0784313753247261f, 0.0f, 0.0f, 0.007843137718737125f, 0.007843137718737125f, 0.03529411926865578f, 0.062745101749897f, 0.01568627543747425f, 0.09803922474384308f, 0.0941176563501358f, 0.0f, 0.18039216101169586f, 0.30980393290519714f, 0.4078431725502014f, 0.2823529541492462f, 0.12156863510608673f, 0.0f, 0.0f, 0.0f, 0.0f, 0.0f, 0.0f, 0.011764707043766975f, 0.0f, 0.0f, 0.0f, 0.0f, 0.0f, 0.0f, 0.0f, 0.0f, 0.0f, 0.0f, 0.0f, 0.0f, 0.0f, 0.0f, 0.0f, 0.003921568859368563f, 0.0f, 0.0f, 0.0f, 0.24705883860588074f, 0.13725490868091583f, 0.0f, 0.0f, 0.01568627543747425f, 0.1411764770746231f, 0.0f, 0.0f, 0.0f, 0.0f, 0.0f, 0.0f, 0.0f, 0.0f, 0.0f, 0.0f, 0.0f, 0.0f, 0.0f, 0.06666667014360428f, 0.08235294371843338f, 0.0f, 0.0f, 0.0f, 0.0f, 0.0f, 0.5098039507865906f, 0.5921568870544434f, 0.6352941393852234f, 0.34117648005485535f, 0.12156863510608673f, 0.14901961386203766f, 0.4862745404243469f, 0.45098042488098145f, 0.4078431725502014f, 0.44705885648727417f, 0.458823561668396f, 0.5176470875740051f, 0.4117647409439087f, 0.44705885648727417f, 0.4431372880935669f, 0.3294117748737335f, 0.3607843220233917f, 0.4549019932746887f, 0.37254902720451355f, 0.2666666805744171f, 0.40000003576278687f, 0.572549045085907f, 0.5372549295425415f, 0.48235297203063965f, 0.49803924560546875f, 0.44705885648727417f, 0.4117647409439087f, 0.3803921937942505f, 0.4274510145187378f, 0.38431376218795776f, 0.7254902124404907f, 0.8705883026123047f, 0.5647059082984924f, 0.2352941334247589f, 0.13333334028720856f, 0.3686274588108063f, 0.32156863808631897f, 0.2352941334247589f, 0.29411765933036804f, 0.24705883860588074f, 0.30980393290519714f, 0.32156863808631897f, 0.2666666805744171f, 0.2196078598499298f, 0.20000001788139343f, 0.16470588743686676f, 0.2352941334247589f, 0.24705883860588074f, 0.21176472306251526f, 0.3803921937942505f, 0.38823533058166504f, 0.24705883860588074f, 0.2039215862751007f, 0.1764705926179886f, 0.24313727021217346f, 0.3176470696926117f, 0.2980392277240753f, 0.2666666805744171f, 0.0f, 0.0f, 0.0f, 0.0f, 0.011764707043766975f, 0.0f, 0.0f, 0.08235294371843338f, 0.1882353127002716f, 0.0f, 0.0f, 0.0f, 0.0f, 0.0f, 0.0f, 0.0f, 0.003921568859368563f, 0.0f, 0.0f, 0.0f, 0.003921568859368563f, 0.01568627543747425f, 0.011764707043766975f, 0.062745101749897f, 0.0f, 0.0f, 0.0f, 0.0f, 0.0f, 0.0f, 0.0f, 0.0313725508749485f, 0.0f, 0.0f, 0.0f, 0.03921568766236305f, 0.07450980693101883f, 0.007843137718737125f, 0.0f, 0.0f, 0.0f, 0.0f, 0.0f, 0.0f, 0.0f, 0.0f, 0.0f, 0.0f, 0.0f, 0.003921568859368563f, 0.019607843831181526f, 0.0f, 0.0f, 0.0f, 0.0f, 0.0f, 0.0f, 0.0f, 0.0f, 0.0f, 0.0f, 0.0f, 0.0f, 0.0f, 0.0f, 0.0f, 0.0f, 0.0f, 0.0f, 0.0f, 0.0f, 0.0f, 0.0f, 0.0f, 0.0f, 0.0f, 0.0f, 0.0f, 0.0f, 0.0f, 0.0f, 0.0f, 0.0f, 0.0f, 0.0f, 0.0f, 0.0f, 0.16862745583057404f, 0.003921568859368563f, 0.0f, 0.0f, 0.0470588281750679f, 0.1725490242242813f, 0.1764705926179886f, 0.03529411926865578f, 0.0470588281750679f, 0.364705890417099f, 0.250980406999588f, 0.09019608050584793f, 0.11372549831867218f, 0.05098039656877518f, 0.125490203499794f, 0.14901961386203766f, 0.19607844948768616f, 0.22352942824363708f, 0.2392157018184662f, 0.11764706671237946f, 0.19607844948768616f, 0.1098039299249649f, 0.019607843831181526f, 0.18039216101169586f, 0.25882354378700256f, 0.21568629145622253f, 0.1764705926179886f, 0.08627451211214066f, 0.07058823853731155f, 0.0f, 0.0f, 0.0f, 0.0f, 0.0f, 0.0f, 0.0f, 0.062745101749897f, 0.027450982481241226f, 0.0f, 0.0f, 0.0f, 0.0f, 0.0f, 0.0f, 0.0f, 0.0f, 0.0f, 0.0f, 0.0f, 0.0f, 0.007843137718737125f, 0.011764707043766975f, 0.0f, 0.0f, 0.0f, 0.0f, 0.0f, 0.0f, 0.01568627543747425f, 0.0f, 0.0f, 0.0f, 0.003921568859368563f, 0.08235294371843338f, 0.09803922474384308f, 0.0f, 0.007843137718737125f, 0.007843137718737125f, 0.0f, 0.0f, 0.0f, 0.0f, 0.0f, 0.011764707043766975f, 0.0f, 0.0f, 0.0f, 0.02352941408753395f, 0.062745101749897f, 0.03529411926865578f, 0.0f, 0.0f, 0.0f, 0.0f, 0.0f, 0.0f, 0.0f, 0.23137256503105164f, 0.1882353127002716f, 0.3333333432674408f, 0.572549045085907f, 0.6627451181411743f, 0.6196078658103943f, 0.364705890417099f, 0.2666666805744171f, 0.40000003576278687f, 0.5411764979362488f, 0.3921568989753723f, 0.30588236451148987f, 0.33725491166114807f, 0.364705890417099f, 0.40392160415649414f, 0.29411765933036804f, 0.2980392277240753f, 0.32549020648002625f, 0.3490196168422699f, 0.27843138575553894f, 0.45098042488098145f, 0.3921568989753723f, 0.4274510145187378f, 0.5568627715110779f, 0.458823561668396f, 0.3529411852359772f, 0.26274511218070984f, 0.2549019753932953f, 0.41568630933761597f, 0.0f, 0.003921568859368563f, 0.24705883860588074f, 0.6000000238418579f, 0.3529411852359772f, 0.003921568859368563f, 0.0f, 0.0f, 0.027450982481241226f, 0.0f, 0.0f, 0.0f, 0.0f, 0.0f, 0.0f, 0.0f, 0.0f, 0.0f, 0.0f, 0.0f, 0.0f, 0.0f, 0.09803922474384308f, 0.011764707043766975f, 0.0f, 0.0f, 0.0f, 0.0f, 0.0f, 0.0f, 0.0f, 0.0f, 0.0f, 0.0f, 0.0f, 0.0f, 0.0f, 0.0f, 0.0f, 0.0f, 0.0f, 0.0f, 0.0f, 0.0f, 0.0f, 0.0f, 0.0f, 0.0f, 0.0f, 0.0f, 0.01568627543747425f, 0.0f, 0.0f, 0.0f, 0.0f, 0.0f, 0.0f, 0.0f, 0.0f, 0.0f, 0.0f, 0.0f, 0.003921568859368563f, 0.02352941408753395f, 0.0f, 0.0f, 0.0f, 0.0f, 0.0f, 0.0f, 0.0f, 0.0f, 0.0f, 0.0f, 0.0f, 0.0f, 0.0f, 0.0f, 0.0f, 0.0f, 0.0f, 0.0f, 0.0f, 0.0f, 0.0f, 0.0f, 0.0f, 0.019607843831181526f, 0.33725491166114807f, 0.3803921937942505f, 0.027450982481241226f, 0.0f, 0.0f, 0.18431372940540314f, 0.250980406999588f, 0.12156863510608673f, 0.04313725605607033f, 0.02352941408753395f, 0.0f, 0.0f, 0.0f, 0.0f, 0.0f, 0.0f, 0.0f, 0.0f, 0.0f, 0.20000001788139343f, 0.3450980484485626f, 0.15294118225574493f, 0.019607843831181526f, 0.0f, 0.0f, 0.011764707043766975f, 0.0f, 0.0f, 0.062745101749897f, 0.0f, 0.0f, 0.07450980693101883f, 0.18431372940540314f, 0.18431372940540314f, 0.007843137718737125f, 0.011764707043766975f, 0.05098039656877518f, 0.0f, 0.0f, 0.0f, 0.0f, 0.0f, 0.01568627543747425f, 0.04313725605607033f, 0.01568627543747425f, 0.02352941408753395f, 0.0470588281750679f, 0.10588236153125763f, 0.0f, 0.0f, 0.003921568859368563f, 0.01568627543747425f, 0.0f, 0.0f, 0.0f, 0.011764707043766975f, 0.12156863510608673f, 0.0f, 0.0f, 0.2196078598499298f, 0.44705885648727417f, 0.3607843220233917f, 0.250980406999588f, 0.0470588281750679f, 0.07450980693101883f, 0.125490203499794f, 0.027450982481241226f, 0.0f, 0.0f, 0.0313725508749485f, 0.07058823853731155f, 0.0470588281750679f, 0.0f, 0.007843137718737125f, 0.0f, 0.0f, 0.0f, 0.0f, 0.02352941408753395f, 0.16862745583057404f, 0.15294118225574493f, 0.03921568766236305f, 0.0f, 0.0f, 0.0f, 0.08235294371843338f};
PI_L2 float L0_WEIGHTS_params[L0_WEIGHTS] = {-0.002123124897480011f, 0.05944749712944031f, 0.0392778106033802f, 0.11146405339241028f, -0.03503156080842018f, -0.09978687018156052f, -0.015923436731100082f, 0.0f, 0.0382162481546402f, 0.0053078122437000275f, -0.06263218820095062f, -0.1146487444639206f, -0.004246249794960022f, 0.07006312161684036f, 0.031846873462200165f, -0.07537093758583069f, 0.0955406203866005f, -0.0774940550327301f, 0.08067874610424042f, 0.03290843591094017f, 0.07112468779087067f, 0.045647185295820236f, 0.0392778106033802f, -0.05201655998826027f, 0.08386343717575073f, -0.014861874282360077f, 0.010615624487400055f, -0.07112468779087067f, -0.029723748564720154f, -0.0031846873462200165f, 0.02866218611598015f, 0.04458562284708023f, 0.11040249466896057f, 0.0392778106033802f, -0.11040249466896057f, -0.026539061218500137f, 0.03715468570590019f, 0.008492499589920044f, 0.04989343509078026f, -0.06050905957818031f, -0.06369374692440033f, -0.07537093758583069f, -0.07961718738079071f, -0.026539061218500137f, -0.010615624487400055f, 0.008492499589920044f, -0.04458562284708023f, -0.0191081240773201f, -0.04777031019330025f, -0.0191081240773201f, -0.03503156080842018f, -0.024415936321020126f, -0.06369374692440033f, -0.04246249794960022f, 0.05944749712944031f, 0.05944749712944031f, 0.05626280978322029f, -0.06793999671936035f, 0.027600623667240143f, -0.013800311833620071f, 0.0191081240773201f, 0.03078531101346016f, -0.014861874282360077f, -0.09978687018156052f, 0.04777031019330025f, 0.08386343717575073f, 0.06581687182188034f, -0.04033937305212021f, 0.01167718693614006f, -0.015923436731100082f, -0.12844905257225037f, 0.020169686526060104f, 0.0583859346807003f, -0.10190999507904053f, -0.10509468615055084f, 0.015923436731100082f, 0.08917124569416046f, 0.0774940550327301f, 0.07218624651432037f, 0.0392778106033802f, 0.06581687182188034f, 0.1146487444639206f, 0.0583859346807003f, -0.04458562284708023f, 0.03715468570590019f, -0.06157062202692032f, 0.01167718693614006f, 0.04777031019330025f, -0.006369374692440033f, -0.11783343553543091f, 0.006369374692440033f, -0.06581687182188034f, 0.04033937305212021f, -0.050954997539520264f, -0.09341749548912048f, -0.05626280978322029f, -0.12101811915636063f, -0.0053078122437000275f, 0.002123124897480011f, -0.04777031019330025f, 0.08067874610424042f, 0.043524060398340225f, 0.07006312161684036f, 0.033969998359680176f, 0.0583859346807003f, -0.04246249794960022f, -0.07218624651432037f, 0.002123124897480011f, -0.0191081240773201f, -0.06050905957818031f, 0.055201247334480286f, -0.016984999179840088f, -0.004246249794960022f, 0.014861874282360077f, 0.0583859346807003f, -0.12632593512535095f, 0.0392778106033802f, -0.010615624487400055f, -0.0053078122437000275f, 0.03715468570590019f, 0.08704812079668045f, 0.016984999179840088f, -0.10403311997652054f, -0.10934093594551086f, -0.08704812079668045f, -0.09023280441761017f, 0.07537093758583069f, 0.04989343509078026f, -0.05944749712944031f, -0.012738749384880066f, 0.03715468570590019f, 0.053078122437000275f, 0.002123124897480011f, -0.026539061218500137f, -0.0053078122437000275f, 0.02123124897480011f, -0.02123124897480011f, -0.031846873462200165f, 0.04883187264204025f, -0.027600623667240143f, -0.06900155544281006f, -0.016984999179840088f, 0.03503156080842018f, 0.006369374692440033f, -0.03609312325716019f, -0.03715468570590019f, -0.03715468570590019f, -0.11783343553543091f, 0.018046561628580093f, 0.0010615624487400055f, -0.10190999507904053f, 0.022292811423540115f, -0.008492499589920044f, -0.11040249466896057f, -0.02335437387228012f, -0.02866218611598015f, 0.026539061218500137f, -0.03078531101346016f, -0.018046561628580093f, -0.0392778106033802f, 0.05944749712944031f, -0.006369374692440033f, 0.08810968697071075f, -0.03715468570590019f, -0.018046561628580093f, -0.06900155544281006f, 0.03715468570590019f, 0.025477498769760132f, -0.04458562284708023f, 0.04883187264204025f, 0.008492499589920044f, -0.013800311833620071f, -0.08492499589920044f, -0.018046561628580093f, 0.0074309371411800385f, -0.0785556212067604f, 0.03609312325716019f, -0.0031846873462200165f, 0.09978687018156052f, -0.014861874282360077f, 0.04458562284708023f, 0.08280187100172043f, -0.020169686526060104f, 0.0966021865606308f, 0.01167718693614006f, -0.0774940550327301f, -0.05626280978322029f, -0.014861874282360077f, -0.04458562284708023f, -0.03503156080842018f, -0.002123124897480011f, -0.045647185295820236f, -0.050954997539520264f, -0.01167718693614006f, 0.06475530564785004f, 0.0f, 0.08492499589920044f, -0.010615624487400055f, -0.04670874774456024f, -0.0031846873462200165f, -0.07112468779087067f, 0.04670874774456024f, 0.09129437059164047f, 0.01167718693614006f, -0.002123124897480011f, 0.06581687182188034f, -0.025477498769760132f, -0.02123124897480011f, -0.016984999179840088f, -0.03078531101346016f, 0.11995655298233032f, -0.020169686526060104f, 0.053078122437000275f, -0.04246249794960022f, -0.04777031019330025f, -0.05413968488574028f, -0.08067874610424042f, 0.02335437387228012f, -0.08492499589920044f, -0.09129437059164047f, 0.050954997539520264f, 0.006369374692440033f, 0.002123124897480011f, -0.00955406203866005f, 0.08598655462265015f, 0.016984999179840088f, 0.018046561628580093f, -0.07430937141180038f, 0.08704812079668045f, 0.016984999179840088f, -0.0392778106033802f, 0.0392778106033802f, -0.05201655998826027f, -0.053078122437000275f, -0.04246249794960022f, -0.12101811915636063f, -0.12314124405384064f, 0.08704812079668045f, -0.06050905957818031f, -0.050954997539520264f, -0.03078531101346016f, -0.0382162481546402f, -0.03609312325716019f, 0.11040249466896057f, 0.03609312325716019f, -0.029723748564720154f, 0.06581687182188034f, 0.055201247334480286f, 0.04670874774456024f, -0.025477498769760132f, 0.027600623667240143f, -0.04246249794960022f, -0.010615624487400055f, 0.0191081240773201f, -0.010615624487400055f, 0.06900155544281006f, 0.08917124569416046f, -0.05626280978322029f, 0.0583859346807003f, 0.0010615624487400055f, -0.06475530564785004f, 0.0774940550327301f, -0.0053078122437000275f, -0.04033937305212021f, -0.10615624487400055f, 0.07006312161684036f, -0.0031846873462200165f, -0.03715468570590019f, 0.016984999179840088f, 0.04033937305212021f, -0.045647185295820236f, 0.008492499589920044f, -0.055201247334480286f, -0.07537093758583069f, 0.0764324963092804f, -0.00955406203866005f, 0.03715468570590019f, 0.027600623667240143f, 0.0031846873462200165f, -0.04033937305212021f, -0.06050905957818031f, -0.04989343509078026f, 0.05626280978322029f, -0.03503156080842018f, -0.03609312325716019f, 0.07537093758583069f, -0.03609312325716019f, -0.012738749384880066f, -0.033969998359680176f, 0.03609312325716019f, -0.020169686526060104f, 0.025477498769760132f, -0.03078531101346016f, -0.0382162481546402f, -0.12632593512535095f, 0.04458562284708023f, 0.10509468615055084f, 0.06793999671936035f, 0.03503156080842018f, -0.041400935500860214f, -0.1167718693614006f, -0.0583859346807003f, 0.06687843799591064f, 0.09447905421257019f, -0.08917124569416046f, -0.08704812079668045f, 0.06475530564785004f, 0.04989343509078026f, -0.045647185295820236f, -0.0053078122437000275f, 0.031846873462200165f, -0.02123124897480011f, -0.04883187264204025f, -0.0573243722319603f, -0.05413968488574028f, -0.0785556212067604f, -0.033969998359680176f, 0.016984999179840088f, -0.02866218611598015f, 0.04246249794960022f, -0.06581687182188034f, -0.050954997539520264f, -0.022292811423540115f, 0.03078531101346016f, 0.08917124569416046f, 0.05626280978322029f, -0.055201247334480286f, 0.09235593676567078f, 0.07006312161684036f, 0.0955406203866005f, 0.1146487444639206f, 0.12526437640190125f, 0.08598655462265015f, 0.043524060398340225f, -0.004246249794960022f, 0.002123124897480011f, -0.012738749384880066f, -0.03503156080842018f, -0.012738749384880066f, -0.03609312325716019f, -0.0382162481546402f, -0.07430937141180038f, -0.05413968488574028f, -0.0583859346807003f, -0.0053078122437000275f, 0.002123124897480011f, 0.0774940550327301f, -0.020169686526060104f, 0.06687843799591064f, -0.0392778106033802f, 0.0955406203866005f, -0.0955406203866005f, -0.07112468779087067f, 0.013800311833620071f, 0.0785556212067604f, -0.08704812079668045f, -0.04777031019330025f, -0.09129437059164047f, -0.04989343509078026f, 0.06050905957818031f, 0.08386343717575073f, 0.04777031019330025f, -0.05626280978322029f, 0.08280187100172043f, 0.018046561628580093f, 0.06687843799591064f, -0.016984999179840088f, 0.002123124897480011f, -0.008492499589920044f, -0.022292811423540115f, -0.07537093758583069f, 0.0382162481546402f, 0.025477498769760132f, -0.06475530564785004f, -0.015923436731100082f, -0.0392778106033802f, -0.020169686526060104f, -0.027600623667240143f, -0.07430937141180038f, 0.0074309371411800385f, 0.03503156080842018f, -0.08810968697071075f, 0.05201655998826027f, -0.10827936977148056f, 0.0191081240773201f, -0.09447905421257019f, 0.0053078122437000275f, 0.055201247334480286f, -0.010615624487400055f, 0.05944749712944031f, 0.04033937305212021f, -0.013800311833620071f, 0.0573243722319603f, -0.04883187264204025f, -0.029723748564720154f, 0.04670874774456024f, 0.026539061218500137f, -0.07537093758583069f, -0.029723748564720154f, 0.015923436731100082f, 0.07112468779087067f, -0.029723748564720154f, -0.05413968488574028f, 0.08067874610424042f, 0.041400935500860214f, -0.08386343717575073f, -0.08598655462265015f, 0.03290843591094017f, -0.11783343553543091f, 0.10827936977148056f, 0.0976637452840805f, 0.0053078122437000275f, 0.04246249794960022f, 0.0785556212067604f, 0.04989343509078026f, 0.04458562284708023f, 0.06263218820095062f, -0.10190999507904053f, -0.055201247334480286f, 0.04883187264204025f, 0.09341749548912048f, 0.0573243722319603f, -0.0053078122437000275f, -0.02335437387228012f, -0.0573243722319603f, -0.025477498769760132f, -0.04670874774456024f, -0.04883187264204025f, -0.022292811423540115f, 0.06581687182188034f, 0.004246249794960022f, 0.0382162481546402f, -0.04989343509078026f, 0.03290843591094017f, -0.010615624487400055f, 0.050954997539520264f, 0.016984999179840088f, -0.004246249794960022f, 0.10615624487400055f, 0.10615624487400055f, -0.04033937305212021f, -0.12738749384880066f, -0.053078122437000275f, -0.04777031019330025f, 0.07112468779087067f, -0.050954997539520264f, 0.07961718738079071f, 0.10934093594551086f, 0.134818434715271f, 0.006369374692440033f, -0.0764324963092804f, 0.08492499589920044f, 0.04458562284708023f, -0.008492499589920044f, 0.020169686526060104f, 0.06157062202692032f, -0.09023280441761017f, 0.06900155544281006f, 0.031846873462200165f, 0.03715468570590019f, -0.04670874774456024f, 0.06157062202692032f, 0.1167718693614006f, 0.05626280978322029f, 0.024415936321020126f, -0.045647185295820236f, -0.04777031019330025f, 0.006369374692440033f, 0.03078531101346016f, -0.0955406203866005f, -0.06687843799591064f, 0.0031846873462200165f, 0.04777031019330025f, 0.022292811423540115f, 0.0074309371411800385f, -0.025477498769760132f, -0.08492499589920044f, 0.010615624487400055f, 0.0010615624487400055f, -0.04458562284708023f, -0.08174030482769012f, 0.04033937305212021f, 0.06793999671936035f, 0.07218624651432037f, 0.07218624651432037f, 0.0191081240773201f, 0.04458562284708023f, 0.12632593512535095f, 0.07537093758583069f, 0.04670874774456024f, 0.04246249794960022f, -0.04246249794960022f, 0.06900155544281006f, 0.06475530564785004f, 0.050954997539520264f, -0.0053078122437000275f, -0.04033937305212021f, -0.08810968697071075f, -0.02866218611598015f, 0.03078531101346016f, 0.06793999671936035f, -0.013800311833620071f, 0.04458562284708023f, -0.09447905421257019f, -0.03609312325716019f, -0.05626280978322029f, -0.09235593676567078f, -0.11995655298233032f, 0.00955406203866005f, -0.09447905421257019f, 0.06475530564785004f, 0.002123124897480011f, -0.020169686526060104f, 0.020169686526060104f, 0.029723748564720154f, 0.04670874774456024f, -0.0573243722319603f, 0.026539061218500137f, 0.004246249794960022f, 0.012738749384880066f, 0.09235593676567078f, -0.04777031019330025f, 0.07112468779087067f, -0.0382162481546402f, 0.08598655462265015f, -0.02335437387228012f, -0.06900155544281006f, -0.010615624487400055f, 0.09978687018156052f, -0.02866218611598015f, 0.11889499425888062f, -0.06157062202692032f, -0.134818434715271f, -0.10721780359745026f, -0.07006312161684036f, -0.04989343509078026f, 0.00955406203866005f, 0.0f, -0.018046561628580093f, -0.0074309371411800385f, 0.04670874774456024f, 0.07218624651432037f, 0.08174030482769012f, 0.0774940550327301f, 0.06263218820095062f, 0.022292811423540115f, 0.06050905957818031f, -0.04033937305212021f, 0.08386343717575073f, 0.0392778106033802f, 0.022292811423540115f, 0.04033937305212021f, -0.12101811915636063f, -0.10403311997652054f, 0.026539061218500137f, 0.11358718574047089f, 0.06263218820095062f, -0.10721780359745026f, -0.006369374692440033f, -0.02123124897480011f, -0.008492499589920044f, -0.029723748564720154f, -0.09235593676567078f, -0.07112468779087067f, 0.002123124897480011f, -0.029723748564720154f, -0.0053078122437000275f, 0.09447905421257019f, 0.07430937141180038f, 0.05944749712944031f, -0.055201247334480286f, -0.041400935500860214f, -0.0774940550327301f, -0.002123124897480011f, 0.03715468570590019f, 0.031846873462200165f, -0.010615624487400055f, -0.041400935500860214f, -0.0392778106033802f, 0.07218624651432037f, -0.013800311833620071f, 0.043524060398340225f, 0.07006312161684036f, -0.0764324963092804f, -0.10190999507904053f, -0.06793999671936035f, 0.002123124897480011f, -0.08386343717575073f, -0.07961718738079071f, 0.03078531101346016f, -0.02123124897480011f, 0.010615624487400055f, 0.11040249466896057f, 0.06475530564785004f, 0.0966021865606308f, 0.07112468779087067f, -0.002123124897480011f, 0.002123124897480011f, -0.004246249794960022f, 0.010615624487400055f, 0.008492499589920044f, -0.0382162481546402f, -0.016984999179840088f, 0.03078531101346016f, 0.020169686526060104f, -0.03503156080842018f, -0.013800311833620071f, 0.05944749712944031f, 0.016984999179840088f, -0.016984999179840088f, 0.013800311833620071f, -0.10615624487400055f, 0.10190999507904053f, -0.02335437387228012f, -0.08067874610424042f, -0.09978687018156052f, 0.008492499589920044f, -0.11040249466896057f, -0.041400935500860214f, 0.03503156080842018f, 0.09872530400753021f, 0.04883187264204025f, 0.08492499589920044f, 0.12207968533039093f, 0.10934093594551086f, 0.06157062202692032f, 0.04246249794960022f, -0.022292811423540115f, -0.010615624487400055f, 0.05413968488574028f, -0.050954997539520264f, -0.025477498769760132f, 0.0f, 0.02123124897480011f, 0.024415936321020126f, -0.08810968697071075f, 0.016984999179840088f, 0.041400935500860214f, -0.025477498769760132f, 0.045647185295820236f, 0.04033937305212021f, 0.031846873462200165f, -0.04033937305212021f, 0.10615624487400055f, 0.050954997539520264f, -0.11783343553543091f, 0.026539061218500137f, 0.05201655998826027f, 0.031846873462200165f, 0.03078531101346016f, 0.045647185295820236f, 0.002123124897480011f, 0.02866218611598015f, 0.00955406203866005f, 0.006369374692440033f, -0.03290843591094017f, 0.06050905957818031f, 0.1167718693614006f, -0.043524060398340225f, 0.0074309371411800385f, 0.02123124897480011f, 0.02866218611598015f, 0.008492499589920044f, 0.07430937141180038f, 0.008492499589920044f, 0.055201247334480286f, 0.027600623667240143f, 0.006369374692440033f, -0.0031846873462200165f, -0.1157103031873703f, -0.04458562284708023f, 0.06581687182188034f, -0.055201247334480286f, -0.06050905957818031f, -0.00955406203866005f, -0.0573243722319603f, -0.06475530564785004f, 0.008492499589920044f, -0.09235593676567078f, 0.0392778106033802f, -0.0191081240773201f, -0.03715468570590019f, 0.0f, 0.006369374692440033f, 0.03503156080842018f, 0.07537093758583069f, -0.053078122437000275f, 0.07112468779087067f, 0.03503156080842018f, 0.031846873462200165f, 0.02123124897480011f, 0.07430937141180038f, 0.025477498769760132f, -0.01167718693614006f, 0.0010615624487400055f, -0.07430937141180038f, 0.01167718693614006f, -0.004246249794960022f, -0.06050905957818031f, -0.07961718738079071f, 0.06157062202692032f, 0.07112468779087067f, -0.09447905421257019f, 0.0074309371411800385f, 0.05944749712944031f, -0.0764324963092804f, -0.043524060398340225f, 0.031846873462200165f, -0.06793999671936035f, 0.0010615624487400055f, 0.06369374692440033f, 0.07218624651432037f, 0.055201247334480286f, 0.07006312161684036f, 0.0976637452840805f, 0.08598655462265015f, 0.04883187264204025f, 0.07006312161684036f, 0.04033937305212021f, 0.06157062202692032f, 0.0074309371411800385f, 0.033969998359680176f, 0.0074309371411800385f, -0.07218624651432037f, 0.08174030482769012f, 0.04989343509078026f, -0.01167718693614006f, -0.006369374692440033f, 0.0031846873462200165f, -0.03715468570590019f, 0.053078122437000275f, 0.014861874282360077f, 0.08174030482769012f, -0.0031846873462200165f, 0.04883187264204025f, -0.03503156080842018f, -0.002123124897480011f, -0.045647185295820236f, 0.004246249794960022f, -0.006369374692440033f, -0.013800311833620071f, -0.0392778106033802f, 0.08598655462265015f, -0.014861874282360077f, -0.03715468570590019f, 0.05626280978322029f, -0.0053078122437000275f, 0.04246249794960022f, 0.008492499589920044f, -0.06050905957818031f, -0.026539061218500137f, 0.05626280978322029f, 0.04989343509078026f, -0.053078122437000275f, -0.03503156080842018f, -0.04777031019330025f, -0.08598655462265015f, 0.10297155380249023f, -0.0191081240773201f, -0.1157103031873703f, -0.04989343509078026f, 0.012738749384880066f, -0.06369374692440033f, 0.08704812079668045f, -0.05201655998826027f, -0.024415936321020126f, 0.025477498769760132f, 0.0392778106033802f, 0.0191081240773201f, -0.06157062202692032f, -0.06475530564785004f, 0.0774940550327301f, 0.02866218611598015f, -0.00955406203866005f, 0.06900155544281006f, 0.027600623667240143f, 0.06369374692440033f, 0.026539061218500137f, 0.010615624487400055f, 0.055201247334480286f, 0.013800311833620071f, 0.06793999671936035f, 0.026539061218500137f, 0.07218624651432037f, -0.055201247334480286f, -0.014861874282360077f, -0.04033937305212021f, -0.07112468779087067f, 0.016984999179840088f, 0.05626280978322029f, -0.020169686526060104f, -0.09872530400753021f, -0.05201655998826027f, 0.03078531101346016f, 0.10509468615055084f, 0.10297155380249023f, -0.008492499589920044f, 0.10721780359745026f, -0.01167718693614006f, -0.033969998359680176f, -0.02866218611598015f, -0.02866218611598015f, -0.06687843799591064f, 0.0382162481546402f, 0.00955406203866005f, 0.053078122437000275f, -0.06687843799591064f, -0.06050905957818031f, -0.04458562284708023f, -0.018046561628580093f, -0.07537093758583069f, -0.0573243722319603f, 0.04989343509078026f, -0.026539061218500137f, -0.0031846873462200165f, -0.12632593512535095f, -0.03503156080842018f, 0.008492499589920044f, -0.025477498769760132f, -0.12420280277729034f, 0.03715468570590019f, -0.10190999507904053f, 0.018046561628580093f, 0.11358718574047089f, -0.0053078122437000275f, 0.033969998359680176f, 0.02866218611598015f, 0.06900155544281006f, -0.08810968697071075f, -0.04246249794960022f, -0.02335437387228012f, 0.09023280441761017f, -0.0191081240773201f, 0.010615624487400055f, 0.07537093758583069f, 0.050954997539520264f, -0.08810968697071075f, -0.08067874610424042f, 0.013800311833620071f, -0.04883187264204025f, 0.018046561628580093f, 0.0573243722319603f, 0.05201655998826027f, 0.11889499425888062f, -0.08067874610424042f, -0.10721780359745026f, 0.053078122437000275f, -0.00955406203866005f, -0.006369374692440033f, -0.033969998359680176f, -0.08386343717575073f, -0.13163374364376068f, 0.022292811423540115f, -0.03609312325716019f, -0.008492499589920044f, -0.045647185295820236f, -0.04989343509078026f, -0.015923436731100082f, 0.08810968697071075f, 0.016984999179840088f, -0.04883187264204025f, 0.09341749548912048f, -0.022292811423540115f, 0.024415936321020126f, 0.10934093594551086f, 0.07537093758583069f, 0.024415936321020126f, 0.006369374692440033f, 0.002123124897480011f, -0.022292811423540115f, 0.0010615624487400055f, -0.04777031019330025f, -0.02866218611598015f, 0.022292811423540115f, 0.08067874610424042f, -0.10190999507904053f, 0.02123124897480011f, 0.04777031019330025f, -0.10190999507904053f, 0.020169686526060104f, 0.10297155380249023f, 0.004246249794960022f, -0.029723748564720154f, -0.08067874610424042f, 0.07961718738079071f, 0.07006312161684036f, -0.03609312325716019f, 0.1167718693614006f, 0.0955406203866005f, -0.0774940550327301f, -0.010615624487400055f, -0.05944749712944031f, -0.004246249794960022f, -0.015923436731100082f, 0.018046561628580093f, 0.08598655462265015f, 0.0976637452840805f, 0.04670874774456024f, -0.06687843799591064f, -0.04777031019330025f, -0.006369374692440033f, -0.07430937141180038f, 0.08386343717575073f, 0.03609312325716019f, -0.05626280978322029f, -0.07218624651432037f, -0.033969998359680176f, 0.022292811423540115f, -0.06369374692440033f, 0.0010615624487400055f, 0.012738749384880066f, -0.10721780359745026f, 0.004246249794960022f, 0.0f, -0.0774940550327301f, 0.06050905957818031f, -0.018046561628580093f, -0.025477498769760132f, 0.022292811423540115f, 0.004246249794960022f, 0.0583859346807003f, 0.041400935500860214f, 0.041400935500860214f, -0.06369374692440033f, -0.04670874774456024f, 0.008492499589920044f, -0.045647185295820236f, -0.05413968488574028f, -0.07112468779087067f, -0.01167718693614006f, 0.050954997539520264f, 0.006369374692440033f, 0.053078122437000275f, -0.015923436731100082f, -0.08174030482769012f, 0.02335437387228012f, -0.00955406203866005f, -0.006369374692440033f, 0.0583859346807003f, 0.0976637452840805f, -0.08917124569416046f, -0.07006312161684036f, 0.06263218820095062f, 0.07112468779087067f, -0.05944749712944031f, 0.002123124897480011f, -0.008492499589920044f, -0.02866218611598015f, 0.04883187264204025f, -0.08492499589920044f, -0.043524060398340225f, -0.04883187264204025f, -0.053078122437000275f, -0.0191081240773201f, 0.05201655998826027f, -0.04246249794960022f, -0.0074309371411800385f, 0.06050905957818031f, 0.0191081240773201f, 0.013800311833620071f, 0.026539061218500137f, 0.07324780523777008f, 0.08810968697071075f, 0.031846873462200165f, -0.05201655998826027f, 0.0f, -0.03078531101346016f, 0.10721780359745026f, 0.09447905421257019f, 0.0010615624487400055f, 0.06900155544281006f, -0.025477498769760132f, -0.043524060398340225f, 0.04033937305212021f, 0.00955406203866005f, -0.07537093758583069f, -0.0785556212067604f, 0.03609312325716019f, -0.04989343509078026f, -0.014861874282360077f, -0.04033937305212021f, -0.06687843799591064f, -0.07218624651432037f, 0.0010615624487400055f, -0.06793999671936035f, -0.05201655998826027f, 0.07218624651432037f, 0.02123124897480011f, -0.04246249794960022f, -0.0392778106033802f, 0.045647185295820236f, 0.07430937141180038f, -0.031846873462200165f, -0.09129437059164047f, 0.03609312325716019f, -0.0583859346807003f, -0.031846873462200165f, 0.04458562284708023f, 0.10084843635559082f, 0.02335437387228012f, 0.041400935500860214f, 0.0f, 0.025477498769760132f, -0.10403311997652054f, -0.11040249466896057f, -0.04777031019330025f, -0.02866218611598015f, -0.08704812079668045f, -0.04246249794960022f, 0.014861874282360077f, 0.004246249794960022f, 0.00955406203866005f, 0.014861874282360077f, 0.08067874610424042f, -0.050954997539520264f, 0.053078122437000275f, -0.045647185295820236f, 0.016984999179840088f, 0.0785556212067604f, -0.04033937305212021f, 0.025477498769760132f, 0.0010615624487400055f, 0.10403311997652054f, -0.02123124897480011f, 0.03503156080842018f, -0.0583859346807003f, 0.010615624487400055f, -0.010615624487400055f, 0.031846873462200165f, -0.04883187264204025f, -0.0966021865606308f, 0.03715468570590019f, 0.0010615624487400055f, 0.004246249794960022f, -0.01167718693614006f, -0.013800311833620071f, -0.012738749384880066f, -0.02123124897480011f, -0.06581687182188034f, -0.08917124569416046f, 0.018046561628580093f, 0.03078531101346016f, -0.0573243722319603f, 0.04033937305212021f, -0.013800311833620071f, -0.024415936321020126f, -0.0031846873462200165f, 0.11783343553543091f, -0.11889499425888062f, 0.002123124897480011f, -0.0010615624487400055f, 0.0573243722319603f, -0.0392778106033802f, 0.09447905421257019f, -0.11995655298233032f, -0.11995655298233032f, -0.0031846873462200165f, -0.022292811423540115f, 0.00955406203866005f, 0.013800311833620071f, -0.012738749384880066f, -0.07537093758583069f, -0.022292811423540115f, -0.004246249794960022f, 0.0966021865606308f, 0.08704812079668045f, 0.03715468570590019f, 0.06581687182188034f, 0.05626280978322029f, 0.029723748564720154f, -0.0764324963092804f, 0.0573243722319603f, 0.053078122437000275f, -0.04246249794960022f, -0.02123124897480011f, 0.07218624651432037f, -0.027600623667240143f, -0.018046561628580093f, -0.03609312325716019f, -0.07324780523777008f, -0.022292811423540115f, -0.02335437387228012f, 0.04989343509078026f, 0.09235593676567078f, -0.03715468570590019f, -0.045647185295820236f, 0.01167718693614006f, 0.013800311833620071f, 0.002123124897480011f, -0.11995655298233032f, -0.013800311833620071f, 0.04777031019330025f, 0.0583859346807003f, -0.01167718693614006f, -0.03503156080842018f, -0.031846873462200165f, -0.025477498769760132f, 0.02335437387228012f, 0.010615624487400055f, 0.024415936321020126f, 0.04670874774456024f, 0.022292811423540115f, -0.06263218820095062f, -0.053078122437000275f, -0.004246249794960022f, -0.10297155380249023f, 0.004246249794960022f, 0.022292811423540115f, 0.04033937305212021f, -0.002123124897480011f, 0.029723748564720154f, -0.10297155380249023f, 0.041400935500860214f, 0.13163374364376068f, 0.0764324963092804f, 0.08174030482769012f, 0.010615624487400055f, 0.02123124897480011f, -0.03609312325716019f, -0.06369374692440033f, -0.033969998359680176f, 0.002123124897480011f, -0.0392778106033802f, 0.0074309371411800385f, -0.02866218611598015f, 0.0382162481546402f, 0.03290843591094017f, 0.04883187264204025f, -0.06263218820095062f, -0.08280187100172043f, -0.016984999179840088f, 0.08492499589920044f, -0.024415936321020126f, -0.0010615624487400055f, -0.06157062202692032f, -0.05413968488574028f, 0.08492499589920044f, 0.0031846873462200165f, -0.1167718693614006f, -0.09978687018156052f, -0.10403311997652054f, 0.02866218611598015f, 0.05201655998826027f, 0.04458562284708023f, 0.008492499589920044f, 0.004246249794960022f, 0.002123124897480011f, -0.012738749384880066f, 0.008492499589920044f, -0.11252561956644058f, -0.10934093594551086f, -0.08704812079668045f, -0.08174030482769012f, 0.014861874282360077f, -0.04883187264204025f, 0.03503156080842018f, 0.045647185295820236f, 0.002123124897480011f, -0.08174030482769012f, -0.12632593512535095f, 0.0074309371411800385f, 0.07537093758583069f, 0.0774940550327301f, 0.1337568759918213f, -0.008492499589920044f, -0.06475530564785004f, 0.05413968488574028f, 0.0f, 0.10190999507904053f, 0.0583859346807003f, -0.014861874282360077f, -0.11358718574047089f, -0.07112468779087067f, -0.0774940550327301f, -0.06900155544281006f, 0.004246249794960022f, -0.05626280978322029f, 0.0053078122437000275f, 0.07218624651432037f, -0.010615624487400055f, 0.0573243722319603f, -0.01167718693614006f, 0.06793999671936035f, -0.04777031019330025f, -0.07430937141180038f, -0.04246249794960022f, -0.06369374692440033f, 0.013800311833620071f, 0.06687843799591064f, -0.04989343509078026f, 0.029723748564720154f, 0.06263218820095062f, -0.025477498769760132f, -0.07430937141180038f, 0.06369374692440033f, 0.06475530564785004f, 0.013800311833620071f, -0.07218624651432037f, -0.04033937305212021f, -0.07006312161684036f, 0.004246249794960022f, 0.055201247334480286f, 0.06581687182188034f, 0.015923436731100082f, -0.0583859346807003f, -0.07112468779087067f, 0.05944749712944031f, -0.033969998359680176f, -0.08386343717575073f, -0.02123124897480011f, -0.04777031019330025f, -0.03290843591094017f, -0.0774940550327301f, 0.053078122437000275f, -0.03078531101346016f, 0.01167718693614006f, 0.02866218611598015f, -0.002123124897480011f, -0.04670874774456024f, -0.09023280441761017f, 0.06263218820095062f, -0.0976637452840805f, 0.033969998359680176f, 0.03609312325716019f, -0.12101811915636063f, -0.07006312161684036f, 0.07537093758583069f, -0.006369374692440033f, 0.05626280978322029f, -0.004246249794960022f, 0.03503156080842018f, -0.08174030482769012f, -0.04777031019330025f, -0.02335437387228012f, 0.02335437387228012f, -0.0053078122437000275f, 0.08492499589920044f, 0.043524060398340225f, -0.08067874610424042f, -0.06369374692440033f, 0.027600623667240143f, 0.09235593676567078f, 0.055201247334480286f, -0.0053078122437000275f, -0.014861874282360077f, 0.07430937141180038f, 0.014861874282360077f, 0.020169686526060104f, -0.0053078122437000275f, -0.07961718738079071f, -0.055201247334480286f, -0.08174030482769012f, -0.0382162481546402f, 0.06581687182188034f, 0.031846873462200165f, -0.04777031019330025f, 0.04458562284708023f, -0.00955406203866005f, -0.08598655462265015f, 0.027600623667240143f, -0.06900155544281006f, 0.0191081240773201f, 0.03715468570590019f, -0.0053078122437000275f, -0.06687843799591064f, -0.04670874774456024f, -0.020169686526060104f, -0.014861874282360077f, 0.07006312161684036f, 0.04033937305212021f, -0.020169686526060104f, -0.033969998359680176f, 0.016984999179840088f, -0.0764324963092804f, -0.07218624651432037f, -0.016984999179840088f, 0.00955406203866005f, -0.015923436731100082f, 0.018046561628580093f, 0.05944749712944031f, 0.1337568759918213f, -0.03609312325716019f, -0.07537093758583069f, 0.09023280441761017f, -0.050954997539520264f, 0.020169686526060104f, 0.010615624487400055f, -0.05201655998826027f, -0.029723748564720154f, -0.006369374692440033f, 0.0774940550327301f, -0.022292811423540115f, 0.016984999179840088f, -0.03609312325716019f, -0.06793999671936035f, -0.07006312161684036f, 0.02866218611598015f, 0.05201655998826027f, -0.013800311833620071f, -0.05201655998826027f, -0.033969998359680176f, -0.027600623667240143f, -0.06475530564785004f, -0.0955406203866005f, 0.020169686526060104f, -0.05413968488574028f, -0.010615624487400055f, 0.08810968697071075f, 0.0382162481546402f, 0.0976637452840805f, -0.05201655998826027f, 0.02123124897480011f, 0.0764324963092804f, 0.08598655462265015f, 0.01167718693614006f, -0.00955406203866005f, 0.024415936321020126f, -0.029723748564720154f, -0.08598655462265015f, -0.10297155380249023f, 0.01167718693614006f, 0.0785556212067604f, -0.03290843591094017f, -0.06050905957818031f, 0.01167718693614006f, 0.04989343509078026f, 0.0031846873462200165f, -0.06581687182188034f, -0.0583859346807003f, -0.022292811423540115f, 0.0f, 0.029723748564720154f, -0.05201655998826027f, 0.05201655998826027f, 0.00955406203866005f, -0.0010615624487400055f, 0.050954997539520264f, 0.020169686526060104f, -0.043524060398340225f, 0.12420280277729034f, 0.024415936321020126f, -0.0392778106033802f, -0.05944749712944031f, -0.10934093594551086f, -0.0382162481546402f, -0.0392778106033802f, 0.027600623667240143f, -0.0785556212067604f, 0.015923436731100082f, -0.00955406203866005f, -0.06900155544281006f, 0.0031846873462200165f, -0.010615624487400055f, -0.06793999671936035f, -0.0053078122437000275f, -0.0191081240773201f, 0.033969998359680176f, 0.00955406203866005f, -0.045647185295820236f, 0.055201247334480286f, 0.0191081240773201f, 0.04670874774456024f, -0.014861874282360077f, 0.06050905957818031f, -0.024415936321020126f, -0.029723748564720154f, -0.11995655298233032f, 0.0010615624487400055f, 0.00955406203866005f, 0.06157062202692032f, 0.025477498769760132f, -0.0053078122437000275f, -0.03290843591094017f, -0.016984999179840088f, -0.033969998359680176f, 0.008492499589920044f, -0.11252561956644058f, -0.10190999507904053f, -0.05626280978322029f, 0.006369374692440033f, 0.0392778106033802f, 0.018046561628580093f, -0.024415936321020126f, 0.04883187264204025f, 0.002123124897480011f, -0.01167718693614006f, 0.0955406203866005f, 0.08067874610424042f, -0.0392778106033802f, -0.0010615624487400055f, -0.08598655462265015f, -0.11146405339241028f, 0.0031846873462200165f, 0.06050905957818031f, 0.027600623667240143f, 0.06687843799591064f, -0.06581687182188034f, 0.10084843635559082f, 0.0966021865606308f, 0.04033937305212021f, -0.03609312325716019f, -0.0010615624487400055f, 0.010615624487400055f, 0.08174030482769012f, 0.013800311833620071f, 0.045647185295820236f, 0.012738749384880066f, 0.06157062202692032f, -0.04458562284708023f, 0.0573243722319603f, -0.0031846873462200165f, -0.05944749712944031f, -0.07112468779087067f, -0.09872530400753021f, -0.0191081240773201f, -0.002123124897480011f, -0.07961718738079071f, -0.0976637452840805f, -0.02123124897480011f, 0.10615624487400055f, 0.0583859346807003f, -0.025477498769760132f, -0.01167718693614006f, -0.07218624651432037f, 0.050954997539520264f, 0.12314124405384064f, 0.03715468570590019f, -0.1358799934387207f, -0.0976637452840805f, -0.07537093758583069f, -0.0392778106033802f, 0.07218624651432037f, -0.004246249794960022f, 0.055201247334480286f, 0.05626280978322029f, 0.06687843799591064f, 0.08598655462265015f, -0.024415936321020126f, 0.018046561628580093f, 0.06793999671936035f, 0.029723748564720154f, 0.0f, -0.0583859346807003f, 0.08067874610424042f, 0.06475530564785004f, 0.0191081240773201f, -0.07430937141180038f, 0.010615624487400055f, 0.00955406203866005f, -0.05413968488574028f, 0.03503156080842018f, -0.033969998359680176f, -0.07537093758583069f, -0.02866218611598015f, 0.08386343717575073f, -0.04670874774456024f, 0.010615624487400055f, 0.024415936321020126f, -0.11783343553543091f, -0.016984999179840088f, 0.027600623667240143f, 0.10403311997652054f, -0.018046561628580093f, -0.00955406203866005f, 0.029723748564720154f, 0.06900155544281006f, -0.05413968488574028f, 0.012738749384880066f, -0.013800311833620071f, -0.05626280978322029f, -0.10721780359745026f, 0.06157062202692032f, -0.0774940550327301f, -0.07430937141180038f, -0.027600623667240143f, -0.06157062202692032f, 0.04033937305212021f, -0.0191081240773201f, 0.04458562284708023f, -0.004246249794960022f, 0.002123124897480011f, 0.0392778106033802f, 0.08810968697071075f, -0.12314124405384064f, 0.08067874610424042f, 0.07218624651432037f, 0.05413968488574028f, 0.050954997539520264f, 0.026539061218500137f, -0.050954997539520264f, 0.0976637452840805f, 0.0785556212067604f, -0.04777031019330025f, 0.04777031019330025f, 0.050954997539520264f, 0.006369374692440033f, 0.033969998359680176f, -0.0031846873462200165f, -0.02866218611598015f, -0.055201247334480286f, -0.07324780523777008f, -0.03503156080842018f, -0.0010615624487400055f, -0.004246249794960022f, 0.004246249794960022f, 0.0573243722319603f, 0.04883187264204025f, -0.05201655998826027f, -0.018046561628580093f, 0.04458562284708023f, -0.02866218611598015f, 0.041400935500860214f, 0.022292811423540115f, -0.043524060398340225f, 0.04670874774456024f, 0.031846873462200165f, 0.10827936977148056f, 0.050954997539520264f, 0.0764324963092804f, -0.07218624651432037f, 0.020169686526060104f, 0.02123124897480011f, -0.006369374692440033f, -0.0573243722319603f, 0.0583859346807003f, -0.053078122437000275f, -0.08810968697071075f, -0.02123124897480011f, -0.06900155544281006f, -0.018046561628580093f, 0.0031846873462200165f, 0.043524060398340225f, -0.022292811423540115f, -0.04033937305212021f, 0.043524060398340225f, -0.02123124897480011f, -0.033969998359680176f, 0.014861874282360077f, -0.0031846873462200165f, 0.05944749712944031f, -0.031846873462200165f, -0.1167718693614006f, 0.033969998359680176f, -0.013800311833620071f, 0.06369374692440033f, 0.025477498769760132f, -0.026539061218500137f, -0.02866218611598015f, 0.03078531101346016f, -0.05201655998826027f, -0.1167718693614006f, -0.024415936321020126f, -0.04246249794960022f, -0.06050905957818031f, -0.04033937305212021f, 0.018046561628580093f, -0.0583859346807003f, 0.06475530564785004f, -0.010615624487400055f, -0.00955406203866005f, -0.0053078122437000275f, -0.0764324963092804f, 0.027600623667240143f, 0.05626280978322029f, -0.02866218611598015f, 0.06900155544281006f, 0.03715468570590019f, 0.04246249794960022f, -0.0031846873462200165f, -0.045647185295820236f, 0.04246249794960022f, -0.1146487444639206f, -0.04989343509078026f, 0.02866218611598015f, 0.012738749384880066f, 0.0010615624487400055f, 0.06793999671936035f, -0.1326953023672104f, -0.013800311833620071f, 0.0966021865606308f, 0.010615624487400055f, 0.020169686526060104f, -0.004246249794960022f, 0.05413968488574028f, 0.041400935500860214f, -0.07324780523777008f, 0.07324780523777008f, -0.050954997539520264f, -0.04033937305212021f, -0.08598655462265015f, -0.08174030482769012f, 0.014861874282360077f, -0.03609312325716019f, -0.05413968488574028f, 0.06157062202692032f, -0.05944749712944031f, 0.10084843635559082f, 0.06369374692440033f, 0.050954997539520264f, -0.022292811423540115f, 0.10827936977148056f, -0.04670874774456024f, -0.06050905957818031f, 0.10297155380249023f, 0.006369374692440033f, 0.07112468779087067f, 0.09235593676567078f, 0.0f, -0.10190999507904053f, -0.025477498769760132f, -0.0764324963092804f, -0.09235593676567078f, -0.045647185295820236f, -0.03609312325716019f, 0.024415936321020126f, -0.0010615624487400055f, 0.026539061218500137f, -0.0074309371411800385f, 0.04670874774456024f, -0.1146487444639206f, -0.027600623667240143f, 0.029723748564720154f, 0.04458562284708023f, -0.0031846873462200165f, -0.03290843591094017f, 0.00955406203866005f, 0.033969998359680176f, 0.09872530400753021f, -0.055201247334480286f, -0.05944749712944031f, 0.04033937305212021f, 0.09023280441761017f, 0.0764324963092804f, -0.0074309371411800385f, -0.024415936321020126f, -0.06581687182188034f, -0.0764324963092804f, 0.06157062202692032f, 0.05944749712944031f, 0.025477498769760132f, -0.0573243722319603f, -0.050954997539520264f, -0.07324780523777008f, -0.07537093758583069f, -0.0191081240773201f, 0.03078531101346016f, 0.04246249794960022f, 0.05626280978322029f, -0.033969998359680176f, 0.025477498769760132f, 0.0053078122437000275f, -0.033969998359680176f, -0.0382162481546402f, 0.05413968488574028f, -0.05944749712944031f, -0.08917124569416046f, -0.03503156080842018f, -0.0382162481546402f, 0.03503156080842018f, 0.013800311833620071f, -0.0764324963092804f, -0.09447905421257019f, -0.04670874774456024f, -0.033969998359680176f, 0.0764324963092804f, 0.1157103031873703f, 0.08598655462265015f, 0.024415936321020126f, 0.09447905421257019f, 0.10509468615055084f, -0.012738749384880066f, 0.04670874774456024f, -0.09023280441761017f, 0.06475530564785004f, 0.04246249794960022f, -0.06157062202692032f, -0.024415936321020126f, 0.07961718738079071f, -0.014861874282360077f, 0.029723748564720154f, -0.0392778106033802f, -0.06475530564785004f, 0.06900155544281006f, 0.05626280978322029f, 0.03609312325716019f, -0.05944749712944031f, -0.06793999671936035f, 0.09235593676567078f, -0.029723748564720154f, 0.016984999179840088f, -0.07537093758583069f, -0.11889499425888062f, 0.02123124897480011f, 0.10934093594551086f, 0.02866218611598015f, -0.0764324963092804f, 0.041400935500860214f, -0.027600623667240143f, -0.002123124897480011f, -0.004246249794960022f, -0.013800311833620071f, 0.05201655998826027f, -0.0392778106033802f, -0.050954997539520264f, -0.0785556212067604f, -0.06157062202692032f, -0.022292811423540115f, -0.1146487444639206f, 0.053078122437000275f, -0.043524060398340225f, 0.014861874282360077f, -0.018046561628580093f, -0.04777031019330025f, -0.016984999179840088f, 0.029723748564720154f, 0.13163374364376068f, -0.010615624487400055f, 0.04246249794960022f, 0.029723748564720154f, 0.09023280441761017f, 0.08917124569416046f, 0.05201655998826027f, 0.033969998359680176f, -0.0966021865606308f, -0.05413968488574028f, 0.0074309371411800385f, -0.045647185295820236f, -0.03290843591094017f, -0.018046561628580093f, -0.03503156080842018f, -0.06475530564785004f, 0.03078531101346016f, 0.0583859346807003f, 0.08492499589920044f, 0.04246249794960022f, -0.08810968697071075f, -0.016984999179840088f, -0.06687843799591064f, 0.00955406203866005f, -0.024415936321020126f, -0.024415936321020126f, 0.09023280441761017f, 0.01167718693614006f, 0.10827936977148056f, -0.07218624651432037f, -0.07961718738079071f, 0.1167718693614006f, 0.07112468779087067f, -0.0191081240773201f, -0.016984999179840088f, 0.03290843591094017f, 0.0031846873462200165f, -0.10721780359745026f, -0.07112468779087067f, -0.08492499589920044f, -0.10509468615055084f, 0.10190999507904053f, -0.07112468779087067f, -0.05201655998826027f, 0.043524060398340225f, -0.05201655998826027f, -0.026539061218500137f, -0.0774940550327301f, 0.05201655998826027f, -0.06157062202692032f, -0.0392778106033802f, -0.06263218820095062f, -0.002123124897480011f, 0.01167718693614006f, -0.043524060398340225f, -0.0031846873462200165f, -0.06900155544281006f, 0.05413968488574028f, 0.07430937141180038f, -0.08598655462265015f, -0.05413968488574028f, -0.05413968488574028f, 0.04989343509078026f, 0.0074309371411800385f, 0.1326953023672104f, 0.026539061218500137f, -0.01167718693614006f, 0.06793999671936035f, -0.016984999179840088f, 0.06900155544281006f, -0.06581687182188034f, -0.06369374692440033f, 0.008492499589920044f, -0.07430937141180038f, -0.06263218820095062f, 0.029723748564720154f, 0.002123124897480011f, -0.08067874610424042f, -0.013800311833620071f, 0.06369374692440033f, -0.0392778106033802f, 0.0f, 0.05413968488574028f, -0.03503156080842018f, 0.0392778106033802f, -0.014861874282360077f, -0.0785556212067604f, -0.10615624487400055f, -0.018046561628580093f, 0.053078122437000275f, -0.055201247334480286f, -0.041400935500860214f, 0.031846873462200165f, -0.12207968533039093f, 0.0031846873462200165f, 0.0976637452840805f, 0.03078531101346016f, -0.07430937141180038f, -0.10297155380249023f, -0.10297155380249023f, -0.008492499589920044f, -0.05944749712944031f, -0.006369374692440033f, 0.029723748564720154f, -0.0774940550327301f, -0.055201247334480286f, -0.025477498769760132f, -0.09978687018156052f, 0.015923436731100082f, -0.04458562284708023f, -0.06581687182188034f, 0.033969998359680176f, -0.06687843799591064f, -0.03715468570590019f, 0.10190999507904053f, 0.06263218820095062f, -0.08810968697071075f, -0.06900155544281006f, -0.016984999179840088f, -0.03078531101346016f, -0.07961718738079071f, -0.08598655462265015f, -0.055201247334480286f, 0.0010615624487400055f, 0.018046561628580093f, -0.018046561628580093f, 0.0031846873462200165f, -0.02335437387228012f, 0.045647185295820236f, 0.02123124897480011f, 0.027600623667240143f, 0.015923436731100082f, -0.04033937305212021f, -0.050954997539520264f, -0.03609312325716019f, 0.03609312325716019f, 0.06793999671936035f, -0.010615624487400055f, -0.05944749712944031f, 0.06263218820095062f, -0.033969998359680176f};
PI_L2 float LABEL[L0_OUT_CH] = {1.0f, 0.0f};
PI_L2 float L0_OUT_FW_LAST [L0_OUT_CH] = {0.9458937644958496f, -0.9101377725601196f};
PI_L2 float L0_LOSS_LAST = 0.14521798491477966;
PI_L2 float L0_WEIGHT_GRAD_LAST [L0_WEIGHTS] = {-0.0f, -0.0f, -0.0f, -0.0f, -0.0005300636985339224f, -0.0f, -0.0f, -0.0037104457151144743f, -0.0f, -0.0f, -0.0f, -0.0f, -0.0f, -0.0f, -0.0f, -0.0f, -0.0f, -0.0f, -0.0f, -0.0f, -0.0f, -0.006890827789902687f, -0.0f, -0.0f, -0.0f, -0.0f, -0.0f, -0.0021202547941356897f, -0.0f, -0.0f, -0.03710445761680603f, -0.09435132890939713f, -0.09435132890939713f, -0.034454137086868286f, -0.0132515924051404f, -0.005830700043588877f, -0.03180382028222084f, -0.02173260971903801f, -0.02226267382502556f, -0.008481019176542759f, -0.005300636403262615f, -0.0042405095882713795f, -0.0015901910373941064f, -0.0f, -0.0f, -0.0021202547941356897f, -0.0010601273970678449f, -0.0f, -0.0f, -0.007420891430228949f, -0.028623439371585846f, -0.046115536242723465f, -0.0132515924051404f, -0.00795095507055521f, -0.0010601273970678449f, -0.0f, -0.009011082351207733f, -0.01113133691251278f, -0.004770572762936354f, -0.028093375265598297f, -0.07049846649169922f, -0.060427259653806686f, -0.018552228808403015f, -0.0063607641495764256f, -0.014841782860457897f, -0.0530063696205616f, -0.03763452172279358f, -0.0132515924051404f, -0.013781655579805374f, -0.007420891430228949f, -0.009541145525872707f, -0.006890827789902687f, -0.0021202547941356897f, -0.004770572762936354f, -0.0015901910373941064f, -0.0026503182016313076f, -0.0010601273970678449f, -0.0042405095882713795f, -0.018022164702415466f, -0.046645600348711014f, -0.055656686425209045f, -0.02756331115961075f, -0.01643197424709797f, -0.0063607641495764256f, -0.0042405095882713795f, -0.014311719685792923f, -0.005300636403262615f, -0.0f, -0.0f, -0.0f, -0.0f, -0.0f, -0.0f, -0.0f, -0.0f, -0.0f, -0.0f, -0.0f, -0.0f, -0.0f, -0.0f, -0.0f, -0.0f, -0.0f, -0.0f, -0.0f, -0.0f, -0.0f, -0.0f, -0.0f, -0.0f, -0.0f, -0.0f, -0.0f, -0.0f, -0.0f, -0.0f, -0.0f, -0.0f, -0.0f, -0.0f, -0.0f, -0.0f, -0.0f, -0.0f, -0.0f, -0.0f, -0.0f, -0.0f, -0.0f, -0.0f, -0.0f, -0.0f, -0.0f, -0.0f, -0.0f, -0.0f, -0.0f, -0.0f, -0.0f, -0.0f, -0.0f, -0.0f, -0.0f, -0.0f, -0.0f, -0.0f, -0.0f, -0.0f, -0.0f, -0.0f, -0.0f, -0.0f, -0.0f, -0.0f, -0.0f, -0.0f, -0.0f, -0.0f, -0.0f, -0.0f, -0.0f, -0.0f, -0.0f, -0.0f, -0.0f, -0.0f, -0.0f, -0.0f, -0.0f, -0.0f, -0.0f, -0.0f, -0.0f, -0.033924076706171036f, -0.0021202547941356897f, -0.017492100596427917f, -0.06413770467042923f, -0.09223107248544693f, -0.06678802520036697f, -0.04346521943807602f, -0.0540664941072464f, -0.07632916420698166f, -0.060957323759794235f, -0.061487387865781784f, -0.060427259653806686f, -0.060427259653806686f, -0.07420891523361206f, -0.07526904344558716f, -0.060957323759794235f, -0.0551266223192215f, -0.056186750531196594f, -0.05459655821323395f, -0.05353643372654915f, -0.04240509122610092f, -0.04399528354406357f, -0.06837821006774902f, -0.0832199975848198f, -0.07049846649169922f, -0.061487387865781784f, -0.04187502712011337f, -0.05671681463718414f, -0.07473897933959961f, -0.0005300636985339224f, -0.035514265298843384f, -0.09223107248544693f, -0.10760293155908585f, -0.07102853059768677f, -0.04876585677266121f, -0.020142419263720512f, -0.055656686425209045f, -0.06678802520036697f, -0.04293515533208847f, -0.019082291051745415f, -0.019612355157732964f, -0.024382928386330605f, -0.03127375617623329f, -0.025443056598305702f, -0.0132515924051404f, -0.01643197424709797f, -0.015371846966445446f, -0.017492100596427917f, -0.0265031848102808f, -0.03127375617623329f, -0.03816458210349083f, -0.06837821006774902f, -0.05035604536533356f, -0.02597312070429325f, -0.018022164702415466f, -0.007420891430228949f, -0.03233388438820839f, -0.04240509122610092f, -0.0f, -0.0021202547941356897f, -0.0f, -0.0f, -0.0f, -0.0f, -0.0005300636985339224f, -0.0f, -0.0f, -0.0f, -0.0f, -0.0f, -0.0f, -0.0f, -0.0f, -0.0005300636985339224f, -0.0f, -0.0f, -0.0f, -0.0f, -0.0f, -0.0010601273970678449f, -0.0f, -0.0f, -0.0f, -0.0f, -0.0f, -0.0f, -0.0f, -0.0f, -0.0f, -0.0005300636985339224f, -0.009011082351207733f, -0.0010601273970678449f, -0.0f, -0.0f, -0.0015901910373941064f, -0.022792737931013107f, -0.0f, -0.0f, -0.0f, -0.0f, -0.0f, -0.0f, -0.0f, -0.0f, -0.0f, -0.0f, -0.0f, -0.0f, -0.0005300636985339224f, -0.008481019176542759f, -0.0021202547941356897f, -0.0f, -0.0f, -0.0f, -0.0f, -0.0f, -0.023852864280343056f, -0.03657439351081848f, -0.03180382028222084f, -0.0f, -0.0f, -0.0005300636985339224f, -0.02756331115961075f, -0.040814902633428574f, -0.0031803820747882128f, -0.007420891430228949f, -0.025443056598305702f, -0.024382928386330605f, -0.023852864280343056f, -0.011661400087177753f, -0.012721528299152851f, -0.008481019176542759f, -0.004770572762936354f, -0.016962038353085518f, -0.004770572762936354f, -0.004770572762936354f, -0.01643197424709797f, -0.04240509122610092f, -0.009541145525872707f, -0.0010601273970678449f, -0.020142419263720512f, -0.01590191014111042f, -0.017492100596427917f, -0.02067248336970806f, -0.0042405095882713795f, -0.019612355157732964f, -0.03763452172279358f, -0.023322800174355507f, -0.0042405095882713795f, -0.039754774421453476f, -0.04346521943807602f, -0.02226267382502556f, -0.0010601273970678449f, -0.0f, -0.0015901910373941064f, -0.012191464193165302f, -0.012721528299152851f, -0.022792737931013107f, -0.018022164702415466f, -0.02226267382502556f, -0.014311719685792923f, -0.0026503182016313076f, -0.01060127280652523f, -0.023852864280343056f, -0.02226267382502556f, -0.012721528299152851f, -0.004770572762936354f, -0.0f, -0.0015901910373941064f, -0.0031803820747882128f, -0.009541145525872707f, -0.014841782860457897f, -0.005830700043588877f, -0.018022164702415466f, -0.0265031848102808f, -0.06890827417373657f, -0.04823579266667366f, -0.0010601273970678449f, -0.0f, -0.0005300636985339224f, -0.030743693932890892f, -0.010071209631860256f, -0.0f, -0.012191464193165302f, -0.02067248336970806f, -0.013781655579805374f, -0.00795095507055521f, -0.0005300636985339224f, -0.0f, -0.0010601273970678449f, -0.0015901910373941064f, -0.0132515924051404f, -0.009541145525872707f, -0.0026503182016313076f, -0.03180382028222084f, -0.03339401260018349f, -0.005300636403262615f, -0.0f, -0.00795095507055521f, -0.010071209631860256f, -0.022792737931013107f, -0.004770572762936354f, -0.0f, -0.0f, -0.0f, -0.0f, -0.0f, -0.0f, -0.0f, -0.0f, -0.0f, -0.0021202547941356897f, -0.0f, -0.0f, -0.0f, -0.0f, -0.0f, -0.0f, -0.0f, -0.0f, -0.0f, -0.0f, -0.0f, -0.0f, -0.0f, -0.0f, -0.0f, -0.0f, -0.0f, -0.0f, -0.0f, -0.0f, -0.007420891430228949f, -0.0f, -0.0f, -0.024912990629673004f, -0.03604432940483093f, -0.00795095507055521f, -0.0021202547941356897f, -0.0021202547941356897f, -0.0026503182016313076f, -0.0f, -0.010071209631860256f, -0.006890827789902687f, -0.015371846966445446f, -0.011661400087177753f, -0.007420891430228949f, -0.012721528299152851f, -0.0037104457151144743f, -0.004770572762936354f, -0.007420891430228949f, -0.01060127280652523f, -0.0f, -0.0f, -0.0010601273970678449f, -0.0010601273970678449f, -0.004770572762936354f, -0.008481019176542759f, -0.0021202547941356897f, -0.0132515924051404f, -0.012721528299152851f, -0.0f, -0.024382928386330605f, -0.04187502712011337f, -0.0551266223192215f, -0.03816458210349083f, -0.01643197424709797f, -0.0f, -0.0f, -0.0f, -0.0f, -0.0f, -0.0f, -0.0015901910373941064f, -0.0f, -0.0f, -0.0f, -0.0f, -0.0f, -0.0f, -0.0f, -0.0f, -0.0f, -0.0f, -0.0f, -0.0f, -0.0f, -0.0f, -0.0f, -0.0005300636985339224f, -0.0f, -0.0f, -0.0f, -0.03339401260018349f, -0.018552228808403015f, -0.0f, -0.0f, -0.0021202547941356897f, -0.019082291051745415f, -0.0f, -0.0f, -0.0f, -0.0f, -0.0f, -0.0f, -0.0f, -0.0f, -0.0f, -0.0f, -0.0f, -0.0f, -0.0f, -0.009011082351207733f, -0.01113133691251278f, -0.0f, -0.0f, -0.0f, -0.0f, -0.0f, -0.06890827417373657f, -0.0800396129488945f, -0.08587031066417694f, -0.046115536242723465f, -0.01643197424709797f, -0.020142419263720512f, -0.06572789698839188f, -0.060957323759794235f, -0.0551266223192215f, -0.060427259653806686f, -0.062017448246479034f, -0.06996840238571167f, -0.055656686425209045f, -0.060427259653806686f, -0.05989719554781914f, -0.04452534765005112f, -0.04876585677266121f, -0.061487387865781784f, -0.05035604536533356f, -0.03604432940483093f, -0.0540664941072464f, -0.07738929241895676f, -0.07261872291564941f, -0.06519783288240433f, -0.06731808930635452f, -0.060427259653806686f, -0.055656686425209045f, -0.05141617730259895f, -0.05777694284915924f, -0.0519462414085865f, -0.09806177765130997f, -0.11767413467168808f, -0.07632916420698166f, -0.03180382028222084f, -0.018022164702415466f, -0.04982598125934601f, -0.04346521943807602f, -0.03180382028222084f, -0.039754774421453476f, -0.03339401260018349f, -0.04187502712011337f, -0.04346521943807602f, -0.03604432940483093f, -0.029683565720915794f, -0.0270332470536232f, -0.02226267382502556f, -0.03180382028222084f, -0.03339401260018349f, -0.028623439371585846f, -0.05141617730259895f, -0.05247630551457405f, -0.03339401260018349f, -0.02756331115961075f, -0.023852864280343056f, -0.03286394849419594f, -0.04293515533208847f, -0.040284838527441025f, -0.03604432940483093f, -0.0f, -0.0f, -0.0f, -0.0f, -0.0015901910373941064f, -0.0f, -0.0f, -0.01113133691251278f, -0.025443056598305702f, -0.0f, -0.0f, -0.0f, -0.0f, -0.0f, -0.0f, -0.0f, -0.0005300636985339224f, -0.0f, -0.0f, -0.0f, -0.0005300636985339224f, -0.0021202547941356897f, -0.0015901910373941064f, -0.008481019176542759f, -0.0f, -0.0f, -0.0f, -0.0f, -0.0f, -0.0f, -0.0f, -0.0042405095882713795f, -0.0f, -0.0f, -0.0f, -0.005300636403262615f, -0.010071209631860256f, -0.0010601273970678449f, -0.0f, -0.0f, -0.0f, -0.0f, -0.0f, -0.0f, -0.0f, -0.0f, -0.0f, -0.0f, -0.0f, -0.0005300636985339224f, -0.0026503182016313076f, -0.0f, -0.0f, -0.0f, -0.0f, -0.0f, -0.0f, -0.0f, -0.0f, -0.0f, -0.0f, -0.0f, -0.0f, -0.0f, -0.0f, -0.0f, -0.0f, -0.0f, -0.0f, -0.0f, -0.0f, -0.0f, -0.0f, -0.0f, -0.0f, -0.0f, -0.0f, -0.0f, -0.0f, -0.0f, -0.0f, -0.0f, -0.0f, -0.0f, -0.0f, -0.0f, -0.0f, -0.022792737931013107f, -0.0005300636985339224f, -0.0f, -0.0f, -0.0063607641495764256f, -0.023322800174355507f, -0.023852864280343056f, -0.004770572762936354f, -0.0063607641495764256f, -0.04929592087864876f, -0.033924076706171036f, -0.012191464193165302f, -0.015371846966445446f, -0.006890827789902687f, -0.016962038353085518f, -0.020142419263720512f, -0.0265031848102808f, -0.030213629826903343f, -0.03233388438820839f, -0.01590191014111042f, -0.0265031848102808f, -0.014841782860457897f, -0.0026503182016313076f, -0.024382928386330605f, -0.034984201192855835f, -0.029153501614928246f, -0.023852864280343056f, -0.011661400087177753f, -0.009541145525872707f, -0.0f, -0.0f, -0.0f, -0.0f, -0.0f, -0.0f, -0.0f, -0.008481019176542759f, -0.0037104457151144743f, -0.0f, -0.0f, -0.0f, -0.0f, -0.0f, -0.0f, -0.0f, -0.0f, -0.0f, -0.0f, -0.0f, -0.0f, -0.0010601273970678449f, -0.0015901910373941064f, -0.0f, -0.0f, -0.0f, -0.0f, -0.0f, -0.0f, -0.0021202547941356897f, -0.0f, -0.0f, -0.0f, -0.0005300636985339224f, -0.01113133691251278f, -0.0132515924051404f, -0.0f, -0.0010601273970678449f, -0.0010601273970678449f, -0.0f, -0.0f, -0.0f, -0.0f, -0.0f, -0.0015901910373941064f, -0.0f, -0.0f, -0.0f, -0.0031803820747882128f, -0.008481019176542759f, -0.004770572762936354f, -0.0f, -0.0f, -0.0f, -0.0f, -0.0f, -0.0f, -0.0f, -0.03127375617623329f, -0.025443056598305702f, -0.045055411756038666f, -0.07738929241895676f, -0.08958075940608978f, -0.08375005424022675f, -0.04929592087864876f, -0.03604432940483093f, -0.0540664941072464f, -0.07314878702163696f, -0.0530063696205616f, -0.04134496673941612f, -0.045585475862026215f, -0.04929592087864876f, -0.05459655821323395f, -0.039754774421453476f, -0.040284838527441025f, -0.04399528354406357f, -0.04717566445469856f, -0.03763452172279358f, -0.060957323759794235f, -0.0530063696205616f, -0.05777694284915924f, -0.07526904344558716f, -0.062017448246479034f, -0.04770572856068611f, -0.035514265298843384f, -0.034454137086868286f, -0.056186750531196594f, -0.0f, -0.0005300636985339224f, -0.03339401260018349f, -0.0810997411608696f, -0.04770572856068611f, -0.0005300636985339224f, -0.0f, -0.0f, -0.0037104457151144743f, -0.0f, -0.0f, -0.0f, -0.0f, -0.0f, -0.0f, -0.0f, -0.0f, -0.0f, -0.0f, -0.0f, -0.0f, -0.0f, -0.0132515924051404f, -0.0015901910373941064f, -0.0f, -0.0f, -0.0f, -0.0f, -0.0f, -0.0f, -0.0f, -0.0f, -0.0f, -0.0f, -0.0f, -0.0f, -0.0f, -0.0f, -0.0f, -0.0f, -0.0f, -0.0f, -0.0f, -0.0f, -0.0f, -0.0f, -0.0f, -0.0f, -0.0f, -0.0f, -0.0021202547941356897f, -0.0f, -0.0f, -0.0f, -0.0f, -0.0f, -0.0f, -0.0f, -0.0f, -0.0f, -0.0f, -0.0f, -0.0005300636985339224f, -0.0031803820747882128f, -0.0f, -0.0f, -0.0f, -0.0f, -0.0f, -0.0f, -0.0f, -0.0f, -0.0f, -0.0f, -0.0f, -0.0f, -0.0f, -0.0f, -0.0f, -0.0f, -0.0f, -0.0f, -0.0f, -0.0f, -0.0f, -0.0f, -0.0f, -0.0026503182016313076f, -0.045585475862026215f, -0.05141617730259895f, -0.0037104457151144743f, -0.0f, -0.0f, -0.024912990629673004f, -0.033924076706171036f, -0.01643197424709797f, -0.005830700043588877f, -0.0031803820747882128f, -0.0f, -0.0f, -0.0f, -0.0f, -0.0f, -0.0f, -0.0f, -0.0f, -0.0f, -0.0270332470536232f, -0.046645600348711014f, -0.02067248336970806f, -0.0026503182016313076f, -0.0f, -0.0f, -0.0015901910373941064f, -0.0f, -0.0f, -0.008481019176542759f, -0.0f, -0.0f, -0.010071209631860256f, -0.024912990629673004f, -0.024912990629673004f, -0.0010601273970678449f, -0.0015901910373941064f, -0.006890827789902687f, -0.0f, -0.0f, -0.0f, -0.0f, -0.0f, -0.0021202547941356897f, -0.005830700043588877f, -0.0021202547941356897f, -0.0031803820747882128f, -0.0063607641495764256f, -0.014311719685792923f, -0.0f, -0.0f, -0.0005300636985339224f, -0.0021202547941356897f, -0.0f, -0.0f, -0.0f, -0.0015901910373941064f, -0.01643197424709797f, -0.0f, -0.0f, -0.029683565720915794f, -0.060427259653806686f, -0.04876585677266121f, -0.033924076706171036f, -0.0063607641495764256f, -0.010071209631860256f, -0.016962038353085518f, -0.0037104457151144743f, -0.0f, -0.0f, -0.0042405095882713795f, -0.009541145525872707f, -0.0063607641495764256f, -0.0f, -0.0010601273970678449f, -0.0f, -0.0f, -0.0f, -0.0f, -0.0031803820747882128f, -0.022792737931013107f, -0.02067248336970806f, -0.005300636403262615f, -0.0f, -0.0f, -0.0f, -0.01113133691251278f, 0.0f, 0.0f, 0.0f, 0.0f, 0.0005300639313645661f, 0.0f, 0.0f, 0.00371044734492898f, 0.0f, 0.0f, 0.0f, 0.0f, 0.0f, 0.0f, 0.0f, 0.0f, 0.0f, 0.0f, 0.0f, 0.0f, 0.0f, 0.006890831049531698f, 0.0f, 0.0f, 0.0f, 0.0f, 0.0f, 0.0021202557254582644f, 0.0f, 0.0f, 0.037104472517967224f, 0.0943513736128807f, 0.0943513736128807f, 0.03445415198802948f, 0.013251597993075848f, 0.005830702837556601f, 0.031803835183382034f, 0.021732619032263756f, 0.022262683138251305f, 0.008481022901833057f, 0.005300638731569052f, 0.004240511450916529f, 0.0015901917358860373f, 0.0f, 0.0f, 0.0021202557254582644f, 0.0010601278627291322f, 0.0f, 0.0f, 0.00742089468985796f, 0.02862345054745674f, 0.046115558594465256f, 0.013251597993075848f, 0.007950958795845509f, 0.0010601278627291322f, 0.0f, 0.009011086076498032f, 0.011131341569125652f, 0.00477057509124279f, 0.028093388304114342f, 0.0704984962940216f, 0.060427285730838776f, 0.018552236258983612f, 0.006360766943544149f, 0.01484178937971592f, 0.05300639197230339f, 0.03763453662395477f, 0.013251597993075848f, 0.013781662099063396f, 0.00742089468985796f, 0.00954115018248558f, 0.006890831049531698f, 0.0021202557254582644f, 0.00477057509124279f, 0.0015901917358860373f, 0.002650319365784526f, 0.0010601278627291322f, 0.004240511450916529f, 0.018022172152996063f, 0.046645622700452805f, 0.055656712502241135f, 0.027563324198126793f, 0.016431981697678566f, 0.006360766943544149f, 0.004240511450916529f, 0.01431172527372837f, 0.005300638731569052f, 0.0f, 0.0f, 0.0f, 0.0f, 0.0f, 0.0f, 0.0f, 0.0f, 0.0f, 0.0f, 0.0f, 0.0f, 0.0f, 0.0f, 0.0f, 0.0f, 0.0f, 0.0f, 0.0f, 0.0f, 0.0f, 0.0f, 0.0f, 0.0f, 0.0f, 0.0f, 0.0f, 0.0f, 0.0f, 0.0f, 0.0f, 0.0f, 0.0f, 0.0f, 0.0f, 0.0f, 0.0f, 0.0f, 0.0f, 0.0f, 0.0f, 0.0f, 0.0f, 0.0f, 0.0f, 0.0f, 0.0f, 0.0f, 0.0f, 0.0f, 0.0f, 0.0f, 0.0f, 0.0f, 0.0f, 0.0f, 0.0f, 0.0f, 0.0f, 0.0f, 0.0f, 0.0f, 0.0f, 0.0f, 0.0f, 0.0f, 0.0f, 0.0f, 0.0f, 0.0f, 0.0f, 0.0f, 0.0f, 0.0f, 0.0f, 0.0f, 0.0f, 0.0f, 0.0f, 0.0f, 0.0f, 0.0f, 0.0f, 0.0f, 0.0f, 0.0f, 0.0f, 0.03392409160733223f, 0.0021202557254582644f, 0.017492108047008514f, 0.06413773447275162f, 0.09223111718893051f, 0.06678805500268936f, 0.04346523806452751f, 0.05406652018427849f, 0.07632920145988464f, 0.060957349836826324f, 0.06148741394281387f, 0.060427285730838776f, 0.060427285730838776f, 0.07420894503593445f, 0.07526907324790955f, 0.060957349836826324f, 0.055126648396253586f, 0.056186776608228683f, 0.05459658429026604f, 0.05353645607829094f, 0.042405109852552414f, 0.04399530217051506f, 0.06837823987007141f, 0.08322002738714218f, 0.0704984962940216f, 0.06148741394281387f, 0.041875045746564865f, 0.05671684071421623f, 0.074739009141922f, 0.0005300639313645661f, 0.03551428020000458f, 0.09223111718893051f, 0.10760297626256943f, 0.07102856040000916f, 0.048765879124403f, 0.02014242857694626f, 0.055656712502241135f, 0.06678805500268936f, 0.04293517395853996f, 0.01908230036497116f, 0.01961236447095871f, 0.0243829395622015f, 0.031273771077394485f, 0.025443067774176598f, 0.013251597993075848f, 0.016431981697678566f, 0.015371853485703468f, 0.017492108047008514f, 0.026503195986151695f, 0.031273771077394485f, 0.03816460072994232f, 0.06837823987007141f, 0.05035606771707535f, 0.025973131880164146f, 0.018022172152996063f, 0.00742089468985796f, 0.03233389928936958f, 0.042405109852552414f, 0.0f, 0.0021202557254582644f, 0.0f, 0.0f, 0.0f, 0.0f, 0.0005300639313645661f, 0.0f, 0.0f, 0.0f, 0.0f, 0.0f, 0.0f, 0.0f, 0.0f, 0.0005300639313645661f, 0.0f, 0.0f, 0.0f, 0.0f, 0.0f, 0.0010601278627291322f, 0.0f, 0.0f, 0.0f, 0.0f, 0.0f, 0.0f, 0.0f, 0.0f, 0.0f, 0.0005300639313645661f, 0.009011086076498032f, 0.0010601278627291322f, 0.0f, 0.0f, 0.0015901917358860373f, 0.022792747244238853f, 0.0f, 0.0f, 0.0f, 0.0f, 0.0f, 0.0f, 0.0f, 0.0f, 0.0f, 0.0f, 0.0f, 0.0f, 0.0005300639313645661f, 0.008481022901833057f, 0.0021202557254582644f, 0.0f, 0.0f, 0.0f, 0.0f, 0.0f, 0.02385287545621395f, 0.036574408411979675f, 0.031803835183382034f, 0.0f, 0.0f, 0.0005300639313645661f, 0.027563324198126793f, 0.040814921259880066f, 0.0031803834717720747f, 0.00742089468985796f, 0.025443067774176598f, 0.0243829395622015f, 0.02385287545621395f, 0.011661405675113201f, 0.012721533887088299f, 0.008481022901833057f, 0.00477057509124279f, 0.016962045803666115f, 0.00477057509124279f, 0.00477057509124279f, 0.016431981697678566f, 0.042405109852552414f, 0.00954115018248558f, 0.0010601278627291322f, 0.02014242857694626f, 0.015901917591691017f, 0.017492108047008514f, 0.020672492682933807f, 0.004240511450916529f, 0.01961236447095871f, 0.03763453662395477f, 0.023322811350226402f, 0.004240511450916529f, 0.03975479304790497f, 0.04346523806452751f, 0.022262683138251305f, 0.0010601278627291322f, 0.0f, 0.0015901917358860373f, 0.01219146978110075f, 0.012721533887088299f, 0.022792747244238853f, 0.018022172152996063f, 0.022262683138251305f, 0.01431172527372837f, 0.002650319365784526f, 0.010601277463138103f, 0.02385287545621395f, 0.022262683138251305f, 0.012721533887088299f, 0.00477057509124279f, 0.0f, 0.0015901917358860373f, 0.0031803834717720747f, 0.00954115018248558f, 0.01484178937971592f, 0.005830702837556601f, 0.018022172152996063f, 0.026503195986151695f, 0.06890830397605896f, 0.04823581501841545f, 0.0010601278627291322f, 0.0f, 0.0005300639313645661f, 0.030743706971406937f, 0.01007121428847313f, 0.0f, 0.01219146978110075f, 0.020672492682933807f, 0.013781662099063396f, 0.007950958795845509f, 0.0005300639313645661f, 0.0f, 0.0010601278627291322f, 0.0015901917358860373f, 0.013251597993075848f, 0.00954115018248558f, 0.002650319365784526f, 0.031803835183382034f, 0.03339402750134468f, 0.005300638731569052f, 0.0f, 0.007950958795845509f, 0.01007121428847313f, 0.022792747244238853f, 0.00477057509124279f, 0.0f, 0.0f, 0.0f, 0.0f, 0.0f, 0.0f, 0.0f, 0.0f, 0.0f, 0.0021202557254582644f, 0.0f, 0.0f, 0.0f, 0.0f, 0.0f, 0.0f, 0.0f, 0.0f, 0.0f, 0.0f, 0.0f, 0.0f, 0.0f, 0.0f, 0.0f, 0.0f, 0.0f, 0.0f, 0.0f, 0.0f, 0.00742089468985796f, 0.0f, 0.0f, 0.0249130018055439f, 0.036044344305992126f, 0.007950958795845509f, 0.0021202557254582644f, 0.0021202557254582644f, 0.002650319365784526f, 0.0f, 0.01007121428847313f, 0.006890831049531698f, 0.015371853485703468f, 0.011661405675113201f, 0.00742089468985796f, 0.012721533887088299f, 0.00371044734492898f, 0.00477057509124279f, 0.00742089468985796f, 0.010601277463138103f, 0.0f, 0.0f, 0.0010601278627291322f, 0.0010601278627291322f, 0.00477057509124279f, 0.008481022901833057f, 0.0021202557254582644f, 0.013251597993075848f, 0.012721533887088299f, 0.0f, 0.0243829395622015f, 0.041875045746564865f, 0.055126648396253586f, 0.03816460072994232f, 0.016431981697678566f, 0.0f, 0.0f, 0.0f, 0.0f, 0.0f, 0.0f, 0.0015901917358860373f, 0.0f, 0.0f, 0.0f, 0.0f, 0.0f, 0.0f, 0.0f, 0.0f, 0.0f, 0.0f, 0.0f, 0.0f, 0.0f, 0.0f, 0.0f, 0.0005300639313645661f, 0.0f, 0.0f, 0.0f, 0.03339402750134468f, 0.018552236258983612f, 0.0f, 0.0f, 0.0021202557254582644f, 0.01908230036497116f, 0.0f, 0.0f, 0.0f, 0.0f, 0.0f, 0.0f, 0.0f, 0.0f, 0.0f, 0.0f, 0.0f, 0.0f, 0.0f, 0.009011086076498032f, 0.011131341569125652f, 0.0f, 0.0f, 0.0f, 0.0f, 0.0f, 0.06890830397605896f, 0.08003965020179749f, 0.08587034791707993f, 0.046115558594465256f, 0.016431981697678566f, 0.02014242857694626f, 0.06572792679071426f, 0.060957349836826324f, 0.055126648396253586f, 0.060427285730838776f, 0.06201747804880142f, 0.06996843218803406f, 0.055656712502241135f, 0.060427285730838776f, 0.05989722162485123f, 0.04452536627650261f, 0.048765879124403f, 0.06148741394281387f, 0.05035606771707535f, 0.036044344305992126f, 0.05406652018427849f, 0.07738932967185974f, 0.0726187527179718f, 0.06519786268472672f, 0.06731811910867691f, 0.060427285730838776f, 0.055656712502241135f, 0.051416199654340744f, 0.05777696520090103f, 0.05194626376032829f, 0.09806181490421295f, 0.11767418682575226f, 0.07632920145988464f, 0.031803835183382034f, 0.018022172152996063f, 0.0498260036110878f, 0.04346523806452751f, 0.031803835183382034f, 0.03975479304790497f, 0.03339402750134468f, 0.041875045746564865f, 0.04346523806452751f, 0.036044344305992126f, 0.02968357875943184f, 0.027033260092139244f, 0.022262683138251305f, 0.031803835183382034f, 0.03339402750134468f, 0.02862345054745674f, 0.051416199654340744f, 0.05247632786631584f, 0.03339402750134468f, 0.027563324198126793f, 0.02385287545621395f, 0.03286396339535713f, 0.04293517395853996f, 0.04028485715389252f, 0.036044344305992126f, 0.0f, 0.0f, 0.0f, 0.0f, 0.0015901917358860373f, 0.0f, 0.0f, 0.011131341569125652f, 0.025443067774176598f, 0.0f, 0.0f, 0.0f, 0.0f, 0.0f, 0.0f, 0.0f, 0.0005300639313645661f, 0.0f, 0.0f, 0.0f, 0.0005300639313645661f, 0.0021202557254582644f, 0.0015901917358860373f, 0.008481022901833057f, 0.0f, 0.0f, 0.0f, 0.0f, 0.0f, 0.0f, 0.0f, 0.004240511450916529f, 0.0f, 0.0f, 0.0f, 0.005300638731569052f, 0.01007121428847313f, 0.0010601278627291322f, 0.0f, 0.0f, 0.0f, 0.0f, 0.0f, 0.0f, 0.0f, 0.0f, 0.0f, 0.0f, 0.0f, 0.0005300639313645661f, 0.002650319365784526f, 0.0f, 0.0f, 0.0f, 0.0f, 0.0f, 0.0f, 0.0f, 0.0f, 0.0f, 0.0f, 0.0f, 0.0f, 0.0f, 0.0f, 0.0f, 0.0f, 0.0f, 0.0f, 0.0f, 0.0f, 0.0f, 0.0f, 0.0f, 0.0f, 0.0f, 0.0f, 0.0f, 0.0f, 0.0f, 0.0f, 0.0f, 0.0f, 0.0f, 0.0f, 0.0f, 0.0f, 0.022792747244238853f, 0.0005300639313645661f, 0.0f, 0.0f, 0.006360766943544149f, 0.023322811350226402f, 0.02385287545621395f, 0.00477057509124279f, 0.006360766943544149f, 0.04929593950510025f, 0.03392409160733223f, 0.01219146978110075f, 0.015371853485703468f, 0.006890831049531698f, 0.016962045803666115f, 0.02014242857694626f, 0.026503195986151695f, 0.030213642865419388f, 0.03233389928936958f, 0.015901917591691017f, 0.026503195986151695f, 0.01484178937971592f, 0.002650319365784526f, 0.0243829395622015f, 0.03498421609401703f, 0.02915351465344429f, 0.02385287545621395f, 0.011661405675113201f, 0.00954115018248558f, 0.0f, 0.0f, 0.0f, 0.0f, 0.0f, 0.0f, 0.0f, 0.008481022901833057f, 0.00371044734492898f, 0.0f, 0.0f, 0.0f, 0.0f, 0.0f, 0.0f, 0.0f, 0.0f, 0.0f, 0.0f, 0.0f, 0.0f, 0.0010601278627291322f, 0.0015901917358860373f, 0.0f, 0.0f, 0.0f, 0.0f, 0.0f, 0.0f, 0.0021202557254582644f, 0.0f, 0.0f, 0.0f, 0.0005300639313645661f, 0.011131341569125652f, 0.013251597993075848f, 0.0f, 0.0010601278627291322f, 0.0010601278627291322f, 0.0f, 0.0f, 0.0f, 0.0f, 0.0f, 0.0015901917358860373f, 0.0f, 0.0f, 0.0f, 0.0031803834717720747f, 0.008481022901833057f, 0.00477057509124279f, 0.0f, 0.0f, 0.0f, 0.0f, 0.0f, 0.0f, 0.0f, 0.031273771077394485f, 0.025443067774176598f, 0.04505543038249016f, 0.07738932967185974f, 0.08958079665899277f, 0.08375009149312973f, 0.04929593950510025f, 0.036044344305992126f, 0.05406652018427849f, 0.07314881682395935f, 0.05300639197230339f, 0.041344985365867615f, 0.04558549448847771f, 0.04929593950510025f, 0.05459658429026604f, 0.03975479304790497f, 0.04028485715389252f, 0.04399530217051506f, 0.04717568680644035f, 0.03763453662395477f, 0.060957349836826324f, 0.05300639197230339f, 0.05777696520090103f, 0.07526907324790955f, 0.06201747804880142f, 0.0477057509124279f, 0.03551428020000458f, 0.03445415198802948f, 0.056186776608228683f, 0.0f, 0.0005300639313645661f, 0.03339402750134468f, 0.08109977841377258f, 0.0477057509124279f, 0.0005300639313645661f, 0.0f, 0.0f, 0.00371044734492898f, 0.0f, 0.0f, 0.0f, 0.0f, 0.0f, 0.0f, 0.0f, 0.0f, 0.0f, 0.0f, 0.0f, 0.0f, 0.0f, 0.013251597993075848f, 0.0015901917358860373f, 0.0f, 0.0f, 0.0f, 0.0f, 0.0f, 0.0f, 0.0f, 0.0f, 0.0f, 0.0f, 0.0f, 0.0f, 0.0f, 0.0f, 0.0f, 0.0f, 0.0f, 0.0f, 0.0f, 0.0f, 0.0f, 0.0f, 0.0f, 0.0f, 0.0f, 0.0f, 0.0021202557254582644f, 0.0f, 0.0f, 0.0f, 0.0f, 0.0f, 0.0f, 0.0f, 0.0f, 0.0f, 0.0f, 0.0f, 0.0005300639313645661f, 0.0031803834717720747f, 0.0f, 0.0f, 0.0f, 0.0f, 0.0f, 0.0f, 0.0f, 0.0f, 0.0f, 0.0f, 0.0f, 0.0f, 0.0f, 0.0f, 0.0f, 0.0f, 0.0f, 0.0f, 0.0f, 0.0f, 0.0f, 0.0f, 0.0f, 0.002650319365784526f, 0.04558549448847771f, 0.051416199654340744f, 0.00371044734492898f, 0.0f, 0.0f, 0.0249130018055439f, 0.03392409160733223f, 0.016431981697678566f, 0.005830702837556601f, 0.0031803834717720747f, 0.0f, 0.0f, 0.0f, 0.0f, 0.0f, 0.0f, 0.0f, 0.0f, 0.0f, 0.027033260092139244f, 0.046645622700452805f, 0.020672492682933807f, 0.002650319365784526f, 0.0f, 0.0f, 0.0015901917358860373f, 0.0f, 0.0f, 0.008481022901833057f, 0.0f, 0.0f, 0.01007121428847313f, 0.0249130018055439f, 0.0249130018055439f, 0.0010601278627291322f, 0.0015901917358860373f, 0.006890831049531698f, 0.0f, 0.0f, 0.0f, 0.0f, 0.0f, 0.0021202557254582644f, 0.005830702837556601f, 0.0021202557254582644f, 0.0031803834717720747f, 0.006360766943544149f, 0.01431172527372837f, 0.0f, 0.0f, 0.0005300639313645661f, 0.0021202557254582644f, 0.0f, 0.0f, 0.0f, 0.0015901917358860373f, 0.016431981697678566f, 0.0f, 0.0f, 0.02968357875943184f, 0.060427285730838776f, 0.048765879124403f, 0.03392409160733223f, 0.006360766943544149f, 0.01007121428847313f, 0.016962045803666115f, 0.00371044734492898f, 0.0f, 0.0f, 0.004240511450916529f, 0.00954115018248558f, 0.006360766943544149f, 0.0f, 0.0010601278627291322f, 0.0f, 0.0f, 0.0f, 0.0f, 0.0031803834717720747f, 0.022792747244238853f, 0.020672492682933807f, 0.005300638731569052f, 0.0f, 0.0f, 0.0f, 0.011131341569125652f};
PI_L2 float L0_BIAS_GRAD_LAST [L0_OUT_CH] = {-0.1351662278175354f, 0.13516628742218018f};


